
\data\
ngram 1=1103
ngram 2=2466
ngram 3=2767
ngram 4=1225
ngram 5=1228

\1-grams:
-2.914872	service	-0.049874
-3.090963	blaze	-0.049874
-2.488903	)	-0.225965
-2.914872	australian	-0.225965
-3.391993	included	-0.049874
-3.391993	arms	-0.049874
-3.391993	strategists	-0.049874
-3.391993	wanted	-0.049874
-3.391993	three	-0.049874
-3.090963	walters	-0.049874
-3.391993	head	-0.049874
-3.391993	scientific	-0.049874
-3.391993	hands-off	-0.049874
-3.391993	unionist	-0.049874
-3.391993	injured	-0.049874
-3.391993	southwest	-0.049874
-3.391993	demonstrators	-0.049874
-3.391993	teacher	-0.049874
-3.391993	added	-0.049874
-2.789933	center	-0.049874
-3.391993	officially	-0.049874
-3.391993	450	-0.049874
-2.914872	than	-0.049874
-3.391993	want	-0.049874
-3.391993	hege	-0.049874
-3.391993	insisted	-0.049874
-2.914872	't	-0.049874
-3.391993	1989	-0.049874
-2.278050	with	-0.082059
-3.391993	accommodating	-0.049874
-3.391993	rallying	-0.049874
-3.391993	prosperous	-0.049874
-3.391993	malaysia	-0.049874
-3.391993	gunfire	-0.049874
-2.437751	its	-0.049874
-3.391993	look	-0.049874
-1.651630	of	-0.197477
-3.391993	parade	-0.049874
-2.693023	over	-0.146784
-3.391993	fein-ira	-0.049874
-3.391993	proclaimed	-0.049874
-1.738781	to	-0.109188
-3.391993	exchange	-0.049874
-2.488903	(	-0.049874
-3.391993	late	-0.049874
-3.391993	recognition	-0.049874
-3.391993	twin	-0.049874
-3.391993	militia	-0.049874
-3.391993	1997	-0.049874
-3.391993	overlooking	-0.049874
-3.391993	12,242	-0.049874
-3.391993	asking	-0.049874
-2.613842	china	-0.116821
-3.391993	side	-0.049874
-3.090963	any	-0.049874
-3.090963	lawmaker	-0.049874
-3.391993	area	-0.049874
-3.090963	vote	-0.049874
-3.391993	domestic	-0.049874
-3.391993	tjh	-0.049874
-3.391993	manage	-0.049874
-3.391993	administrative	-0.049874
-3.391993	authority	-0.049874
-3.391993	dubbed	-0.049874
-3.391993	nearby	-0.049874
-3.090963	such	-0.049874
-3.090963	gunmen	-0.049874
-3.090963	organization	-0.049874
-3.391993	blurred	-0.049874
-3.391993	queensland	-0.049874
-3.090963	final	-0.049874
-3.391993	2000	-0.049874
-3.391993	internet	-0.049874
-3.391993	host	-0.049874
-3.391993	air	-0.049874
-3.391993	anniversary	-0.049874
-3.391993	death	-0.049874
-3.391993	charge	-0.049874
-3.391993	foxboro	-0.049874
-3.391993	sent	-0.049874
-3.391993	region	-0.049874
-3.391993	substitute	-0.049874
-3.391993	captain	-0.049874
-3.391993	unidentified	-0.049874
-3.391993	jorgensen	-0.049874
-3.391993	retirement	-0.049874
-2.914872	earlier	-0.049874
-3.391993	cup	-0.049874
-3.391993	welcome	-0.049874
-3.391993	crime	-0.049874
-3.391993	26	-0.049874
-3.391993	day	-0.049874
-3.391993	lasted	-0.049874
-3.391993	stacked	-0.049874
-3.391993	ministry	-0.049874
-2.546895	be	-0.049874
-3.391993	flag-raising	-0.049874
-3.090963	kept	-0.049874
-2.914872	many	-0.049874
-3.391993	unification	-0.049874
-3.391993	ann	-0.049874
-3.391993	floated	-0.049874
-2.914872	minute	-0.049874
-3.391993	monopoly	-0.049874
-3.391993	marianne	-0.049874
-3.391993	lives	-0.049874
-3.090963	high	-0.049874
-3.391993	license	-0.049874
-3.391993	roll	-0.049874
-3.391993	didn	-0.049874
-3.391993	pass	-0.049874
-2.789933	home	-0.049874
-3.391993	hear	-0.049874
-3.090963	reorganization	-0.049874
-3.391993	treated	-0.049874
-3.391993	stay	-0.049874
-3.090963	night	-0.049874
-2.914872	groups	-0.049874
-3.391993	towing	-0.049874
-3.391993	crucial	-0.049874
-3.391993	tamil-majority	-0.049874
-3.391993	scuffled	-0.049874
-3.391993	kong	-0.049874
-3.391993	one-party	-0.049874
-3.391993	kam-wah	-0.049874
-2.914872	get	-0.049874
-2.914872	face	-0.049874
-3.391993	amid	-0.049874
-3.090963	worked	-0.049874
-3.391993	riise	-0.049874
-3.391993	drawn-out	-0.049874
-3.391993	japanese	-0.049874
-3.391993	chanted	-0.049874
-2.914872	deputy	-0.049874
-3.391993	funeral	-0.049874
-3.391993	abuse	-0.049874
-3.090963	power	-0.350904
-3.391993	strength	-0.049874
-3.391993	engineers	-0.049874
-3.090963	immigrants	-0.049874
-3.391993	four	-0.049874
-3.090963	containers	-0.049874
-3.391993	shipping	-0.049874
-3.391993	set	-0.049874
-3.391993	lanka	-0.049874
-3.391993	55th	-0.049874
-3.391993	inches	-0.049874
-3.391993	200,000	-0.049874
-3.391993	expected	-0.049874
-3.391993	highly	-0.049874
-3.391993	jintao	-0.049874
-1.659599	and	-0.116821
-3.391993	successive	-0.049874
-3.391993	centimeter	-0.049874
-2.914872	ceremony	-0.526995
-3.391993	point	-0.049874
-3.391993	1983	-0.049874
-3.391993	hwasung	-0.049874
-3.391993	toll	-0.049874
-2.914872	been	-0.049874
-3.391993	built	-0.049874
-3.391993	return	-0.049874
-3.391993	audible	-0.049874
-3.391993	ji-su	-0.049874
-3.391993	ahmad	-0.049874
-3.391993	serving	-0.049874
-3.391993	struggle	-0.049874
-3.391993	next	-0.049874
-2.391993	he	-0.260727
-3.391993	suk	-0.049874
-3.391993	control	-0.049874
-3.090963	played	-0.049874
-2.914872	match	-0.049874
-3.391993	different	-0.049874
-3.391993	frequent	-0.049874
-2.693023	police	-0.196002
-3.391993	northern	-0.049874
-3.090963	world	-0.049874
-3.391993	forehead	-0.049874
-3.391993	martin	-0.049874
-3.090963	long	-0.049874
-3.391993	behind	-0.049874
-2.914872	guards	-0.049874
-3.391993	harbor	-0.049874
-3.391993	abdullah	-0.049874
-3.391993	sending	-0.049874
-3.391993	market	-0.049874
-3.391993	observers	-0.049874
-3.090963	executive	-0.049874
-3.391993	show	-0.049874
-3.391993	rapid	-0.049874
-3.391993	short	-0.049874
-2.312812	said	-0.207482
-3.391993	erred	-0.049874
-3.391993	own	-0.049874
-3.090963	knights	-0.049874
-3.391993	network	-0.049874
-3.090963	wife	-0.049874
-3.391993	156	-0.049874
-3.391993	recession	-0.049874
-3.391993	tight	-0.049874
-3.391993	days	-0.049874
-3.391993	husband	-0.049874
-3.391993	marks	-0.049874
-3.391993	feet	-0.049874
-3.391993	soccer	-0.049874
-3.391993	defeated	-0.049874
-3.391993	victoria	-0.049874
-3.391993	traditional	-0.049874
-2.391993	"	-0.049874
-3.391993	badawi	-0.049874
-3.391993	m.	-0.049874
-3.391993	mourning	-0.049874
-3.391993	daughters	-0.049874
-3.391993	him	-0.049874
-3.090963	election	-0.049874
-3.391993	blocked	-0.049874
-3.391993	squarely	-0.049874
-3.391993	towered	-0.049874
-2.391993	his	-0.049874
-3.391993	june	-0.049874
-2.914872	both	-0.049874
-3.090963	miles	-0.350904
-3.391993	celebrating	-0.049874
-3.391993	involved	-0.049874
-3.391993	1.6	-0.049874
-3.391993	dissent	-0.049874
-3.391993	sunday	-0.049874
-3.391993	outshooting	-0.049874
-3.391993	crushed	-0.049874
-3.391993	explanations	-0.049874
-3.391993	here	-0.049874
-3.090963	spokesman	-0.049874
-3.090963	down	-0.049874
-3.391993	province	-0.049874
-3.391993	chants	-0.049874
-3.391993	raided	-0.049874
-3.391993	youth	-0.049874
-3.090963	kick	-0.049874
-3.391993	stands	-0.049874
-3.391993	provider	-0.049874
-2.693023	corp.	-0.049874
-3.391993	korea	-0.049874
-3.391993	facilities	-0.049874
-3.391993	sentence	-0.049874
-3.391993	migrant	-0.049874
-3.391993	without	-0.049874
-3.090963	need	-0.049874
-3.391993	carrier	-0.049874
-3.391993	oversees	-0.049874
-3.391993	work	-0.049874
-3.391993	silje	-0.049874
-3.391993	gp-dj	-0.049874
-3.391993	celebrate	-0.049874
-3.391993	retiree	-0.049874
-3.391993	update	-0.049874
-3.391993	60	-0.049874
-3.391993	brought	-0.049874
-2.789933	because	-0.350904
-3.391993	kristin	-0.049874
-3.391993	affluent	-0.049874
-3.391993	rebel	-0.049874
-3.090963	protege	-0.049874
-3.391993	planned	-0.049874
-2.914872	women	-0.526995
-3.391993	influx	-0.049874
-3.391993	or	-0.049874
-2.789933	teachers	-0.146784
-3.391993	scored	-0.049874
-3.391993	58,000	-0.049874
-3.090963	i	-0.049874
-2.546895	ntt	-0.049874
-3.391993	goalie	-0.049874
-3.391993	plote	-0.049874
-3.391993	residents	-0.049874
-3.391993	tamils	-0.049874
-3.391993	materials	-0.049874
-3.391993	regulated	-0.049874
-3.090963	turned	-0.049874
-3.391993	boat	-0.049874
-3.391993	ordinary	-0.049874
-3.391993	field	-0.049874
-3.391993	collision	-0.049874
-3.391993	potential	-0.049874
-3.391993	saying	-0.049874
-3.090963	peace	-0.049874
-2.312812	has	-0.122425
-3.391993	gutted	-0.049874
-3.391993	dinner	-0.049874
-3.391993	reunification	-0.049874
-3.391993	mohamad	-0.049874
-3.391993	short-circuit	-0.049874
-3.391993	inside	-0.049874
-3.391993	july	-0.049874
-3.391993	term	-0.049874
-3.391993	small	-0.049874
-3.391993	decade	-0.049874
-3.391993	ran	-0.049874
-3.391993	appearances	-0.049874
-2.437751	from	-0.101027
-3.391993	gulbrandsen	-0.049874
-2.914872	state	-0.225965
-3.090963	demonstrations	-0.049874
-3.391993	inc	-0.049874
-3.391993	rapidly	-0.049874
-3.090963	defenders	-0.049874
-3.391993	tough	-0.049874
-3.391993	ball	-0.049874
-3.391993	butchers	-0.049874
-3.391993	custody	-0.049874
-3.391993	present	-0.049874
-3.391993	eelam	-0.049874
-2.914872	first	-0.049874
-3.090963	gave	-0.049874
-3.391993	once-fragmented	-0.049874
-3.391993	azizah	-0.049874
-3.090963	holding	-0.350904
-3.391993	revised	-0.049874
-3.391993	talk	-0.049874
-3.391993	promises	-0.049874
-3.391993	met	-0.049874
-3.391993	born	-0.049874
-3.391993	pharmaceutical	-0.049874
-3.391993	six-year	-0.049874
-3.391993	friday	-0.049874
-3.391993	bill	-0.049874
-3.391993	player	-0.049874
-3.391993	stop	-0.049874
-3.391993	took	-0.049874
-3.090963	blair	-0.049874
-3.391993	trimble	-0.049874
-3.391993	stem	-0.049874
-2.914872	telecommunications	-0.049874
-3.391993	permitted	-0.049874
-2.693023	since	-0.146784
-3.391993	critics	-0.049874
-3.391993	anti-china	-0.049874
-3.090963	colombo	-0.049874
-3.391993	away	-0.049874
-2.136721	on	-0.225965
-3.391993	pro-democracy	-0.049874
-2.693023	this	-0.146784
-3.391993	dlrs	-0.049874
-2.312812	at	-0.209575
-3.391993	macon	-0.049874
-3.391993	characterize	-0.049874
-3.391993	massachusetts	-0.049874
-3.391993	malaysian	-0.049874
-3.391993	overhaul	-0.049874
-3.391993	fluttered	-0.049874
-3.391993	demanded	-0.049874
-2.693023	wednesday	-0.049874
-2.914872	once	-0.049874
-3.391993	standards	-0.049874
-3.391993	card	-0.049874
-2.789933	up	-0.174813
-3.090963	million	-0.049874
-3.391993	judgment	-0.049874
-3.391993	move	-0.049874
-3.391993	especially	-0.049874
-3.391993	agreed	-0.049874
-2.914872	how	-0.049874
-3.391993	month	-0.049874
-3.391993	two-day	-0.049874
-3.090963	country	-0.225965
-3.090963	free	-0.049874
-3.391993	some	-0.049874
-3.391993	discrimination	-0.049874
-2.049570	were	-0.068357
-3.090963	announced	-0.049874
-3.090963	height	-0.049874
-3.391993	chance	-0.049874
-3.391993	3-0	-0.049874
-3.391993	prison	-0.049874
-3.391993	independent	-0.049874
-2.187873	was	-0.073355
-3.391993	dilemma	-0.049874
-3.090963	residency	-0.049874
-3.391993	january	-0.049874
-3.391993	free-market	-0.049874
-3.391993	centimeters	-0.049874
-3.391993	washington	-0.049874
-3.391993	minister	-0.049874
-3.090963	leaders	-0.049874
-3.391993	issuing	-0.049874
-3.391993	breakup	-0.049874
-2.789933	there	-0.049874
-2.693023	prime	-0.447814
-3.391993	hampered	-0.049874
-3.391993	24-2	-0.049874
-2.789933	before	-0.049874
-3.391993	21	-0.049874
-3.391993	prowess	-0.049874
-3.391993	chrysanthemums	-0.049874
-3.391993	meetings	-0.049874
-3.391993	thorough	-0.049874
-3.090963	white	-0.049874
-3.391993	sinhalese	-0.049874
-2.546895	into	-0.196002
-3.391993	51st	-0.049874
-3.391993	dae-jung	-0.049874
-3.391993	graf	-0.049874
-3.391993	capital	-0.049874
-3.090963	financial	-0.049874
-3.391993	virtual	-0.049874
-3.391993	come	-0.049874
-3.090963	pettersen	-0.049874
-3.391993	yet	-0.049874
-3.391993	occurred	-0.049874
-3.090963	yellow	-0.049874
-3.391993	stock	-0.049874
-3.391993	rose	-0.049874
-2.789933	when	-0.049874
-2.914872	most	-0.049874
-3.090963	taken	-0.049874
-3.391993	require	-0.049874
-3.090963	kids	-0.049874
-3.391993	nationwide	-0.049874
-3.391993	persuaded	-0.049874
-2.789933	investigation	-0.049874
-2.914872	will	-0.225965
-3.391993	trapped	-0.049874
-3.391993	notified	-0.049874
-2.437751	children	-0.305147
-3.391993	photos	-0.049874
-3.090963	flags	-0.049874
-3.391993	limits	-0.049874
-3.391993	force	-0.049874
-3.391993	2-0	-0.049874
-3.391993	launched	-0.049874
-3.391993	changing	-0.049874
-3.391993	rugby	-0.049874
-3.391993	room	-0.049874
-3.391993	stretching	-0.049874
-3.090963	child	-0.049874
-2.914872	against	-0.049874
-2.914872	camp	-0.049874
-3.391993	tiananmen	-0.049874
-3.090963	swedes	-0.049874
-3.391993	earned	-0.049874
-3.391993	banded	-0.049874
-3.391993	david	-0.049874
-2.693023	president	-0.049874
-3.391993	1	-0.049874
-2.914872	safety	-0.225965
-3.391993	pleaded	-0.049874
-3.391993	hat	-0.049874
-3.391993	hazardous	-0.049874
-3.391993	surrendering	-0.049874
-3.391993	save	-0.049874
-3.391993	fire-extinguishing	-0.049874
-3.391993	unveiled	-0.049874
-3.391993	carried	-0.049874
-3.391993	sub-standard	-0.049874
-3.391993	making	-0.049874
-2.391993	by	-0.049874
-3.090963	advantage	-0.350904
-3.391993	communist	-0.049874
-3.391993	close	-0.049874
-2.789933	later	-0.049874
-3.391993	structure	-0.049874
-2.693023	it	-0.049874
-3.391993	15	-0.049874
-3.391993	hooker	-0.049874
-3.391993	commonly	-0.049874
-2.693023	dormitory	-0.049874
-3.391993	known	-0.049874
-3.391993	prisoners	-0.049874
-3.090963	recent	-0.049874
-3.391993	number	-0.049874
-3.090963	heard	-0.049874
-2.136721	's	-0.049874
-3.391993	defending	-0.049874
-2.914872	building	-0.049874
-2.914872	second	-0.225965
-3.391993	yards	-0.049874
-3.391993	coast	-0.049874
-3.090963	kim	-0.049874
-2.914872	norwegian	-0.049874
-3.090963	spoke	-0.049874
-3.391993	substantive	-0.049874
-3.391993	allowed	-0.049874
-2.914872	protesters	-0.049874
-3.391993	neighbors	-0.049874
-3.391993	dignitaries	-0.049874
-3.391993	semifinal	-0.049874
-3.391993	burned	-0.049874
-2.113240	that	-0.098179
-3.391993	give	-0.049874
-3.391993	6	-0.049874
-2.187873	hong	-1.253994
-3.391993	complaints	-0.049874
-3.391993	ulrika	-0.049874
-3.391993	relevant	-0.049874
-3.090963	19	-0.350904
-3.391993	weapons	-0.049874
-3.391993	600	-0.049874
-3.391993	horrible	-0.049874
-3.391993	members	-0.049874
-2.789933	died	-0.174813
-3.090963	through	-0.350904
-3.391993	5,000	-0.049874
-3.391993	50	-0.049874
-3.391993	kazuhiko	-0.049874
-3.391993	stopped	-0.049874
-3.391993	every	-0.049874
-3.391993	norwegians	-0.049874
-3.391993	school	-0.049874
-3.391993	u.s.	-0.049874
-3.391993	largely	-0.049874
-3.391993	corridor	-0.049874
-3.391993	amnesty	-0.049874
-3.090963	called	-0.049874
-3.090963	them	-0.049874
-2.914872	business	-0.225965
-3.391993	minority	-0.049874
-2.789933	former	-0.049874
-3.090963	what	-0.049874
-3.391993	civil	-0.049874
-3.391993	getting	-0.049874
-3.391993	conversation	-0.049874
-3.391993	ruins	-0.049874
-3.391993	210	-0.049874
-3.391993	indonesian	-0.049874
-3.391993	identification	-0.049874
-3.391993	along	-0.049874
-3.391993	confiscated	-0.049874
-3.391993	fan	-0.049874
-3.391993	licensed	-0.049874
-3.090963	nishizawa	-0.350904
-2.693023	beijing	-0.146784
-3.090963	kilometers	-0.350904
-3.391993	right	-0.049874
-3.391993	investors	-0.049874
-3.391993	catch	-0.049874
-3.391993	grip	-0.049874
-3.391993	time	-0.049874
-3.391993	predict	-0.049874
-3.391993	staff	-0.049874
-3.391993	mini-constitution	-0.049874
-3.391993	styrofoam	-0.049874
-3.391993	pvs	-0.049874
-3.391993	responding	-0.049874
-3.391993	megaphones	-0.049874
-2.914872	national	-0.049874
-3.391993	build	-0.049874
-3.391993	resources	-0.049874
-3.391993	club	-0.049874
-2.914872	half	-0.049874
-2.789933	not	-0.049874
-2.914872	_	-0.049874
-3.090963	flew	-0.049874
-3.391993	couldn	-0.049874
-2.488903	about	-0.107866
-3.391993	basic	-0.049874
-2.914872	monument	-0.225965
-3.391993	asked	-0.049874
-3.090963	charges	-0.049874
-3.090963	facility	-0.049874
-3.391993	questioning	-0.049874
-3.391993	cases	-0.049874
-3.391993	vavuniya	-0.049874
-3.090963	under	-0.049874
-3.391993	tung	-0.049874
-2.914872	lockhart	-0.225965
-3.391993	conversations	-0.049874
-3.391993	decision	-0.049874
-2.693023	people	-0.049874
-3.391993	tragedy	-0.049874
-3.391993	elections	-0.049874
-3.391993	judiciary	-0.049874
-2.693023	could	-0.049874
-3.391993	handover	-0.049874
-3.391993	sweden	-0.049874
-2.693023	we	-0.146784
-3.090963	shot	-0.049874
-3.090963	quarterfinal	-0.350904
-3.391993	formula	-0.049874
-3.090963	construction	-0.049874
-1.719895	a	-0.068357
-2.914872	local	-0.049874
-3.391993	blame	-0.049874
-2.914872	norway	-0.049874
-3.391993	proper	-0.049874
-3.391993	electrical	-0.049874
-3.391993	criminal	-0.049874
-3.391993	manages	-0.049874
-3.391993	rest	-0.049874
-2.914872	part	-0.225965
-3.391993	gained	-0.049874
-3.391993	opponents	-0.049874
-3.391993	canberra	-0.049874
-3.391993	other	-0.049874
-3.391993	rushed	-0.049874
-3.391993	recreational	-0.049874
-3.391993	carelessness	-0.049874
-3.391993	beyond	-0.049874
-3.391993	off	-0.049874
-3.391993	general	-0.049874
-3.391993	repeatedly	-0.049874
-3.090963	penang	-0.174813
-3.090963	attack	-0.049874
-3.090963	say	-0.049874
-3.391993	rivals	-0.049874
-3.391993	imposing	-0.049874
-3.090963	parents	-0.049874
-3.391993	agree	-0.049874
-3.391993	tiny	-0.049874
-2.914872	things	-0.225965
-2.488903	they	-0.095632
-3.391993	asleep	-0.049874
-3.391993	survivors	-0.049874
-3.391993	mostly	-0.049874
-3.090963	tripped	-0.049874
-3.391993	attending	-0.049874
-3.391993	collapsed	-0.049874
-3.391993	steve	-0.049874
-3.391993	sodomy	-0.049874
-3.090963	moderate	-0.049874
-3.391993	tour	-0.049874
-3.090963	where	-0.049874
-3.391993	retired	-0.049874
-3.391993	flower	-0.049874
-3.391993	inch	-0.049874
-3.391993	soft	-0.049874
-3.391993	docomo	-0.049874
-3.391993	walking	-0.049874
-3.391993	finalist	-0.049874
-2.278050	an	-0.122425
-3.391993	wake	-0.049874
-2.350600	one	-0.087663
-3.391993	fireman	-0.049874
-3.391993	yong-se	-0.049874
-3.391993	australia	-0.049874
-3.391993	step	-0.049874
-3.391993	hoopla	-0.049874
-3.391993	fallen	-0.049874
-3.090963	injury	-0.049874
-3.090963	sri	-0.049874
-3.090963	few	-0.049874
-3.391993	economy	-0.049874
-3.391993	meet-the-people	-0.049874
-2.789933	tamil	-0.049874
-2.914872	call	-0.049874
-3.391993	share	-0.049874
-3.391993	ensure	-0.049874
-3.391993	causes	-0.049874
-3.391993	follows	-0.049874
-3.391993	tuesday	-0.049874
-3.391993	male	-0.049874
-3.391993	release	-0.049874
-3.391993	demanding	-0.049874
-3.391993	conduct	-0.049874
-3.391993	champion	-0.049874
-3.391993	loudly	-0.049874
-3.391993	400	-0.049874
-3.391993	issues	-0.049874
-3.391993	changed	-0.049874
-3.391993	operations	-0.049874
-3.090963	arrest	-0.049874
-1.354567	,	-0.233518
-3.391993	attacked	-0.049874
-3.090963	long-distance	-0.350904
-2.693023	officials	-0.146784
-2.789933	armed	-0.049874
-3.391993	noise	-0.049874
-3.090963	well	-0.049874
-2.693023	which	-0.049874
-3.391993	18-year	-0.049874
-3.391993	hours	-0.049874
-3.391993	december	-0.049874
-3.391993	gerry	-0.049874
-3.391993	guarantees	-0.049874
-3.391993	shares	-0.049874
-3.391993	climbing	-0.049874
-2.914872	british	-0.049874
-3.391993	should	-0.049874
-3.391993	september	-0.049874
-2.789933	past	-0.049874
-3.391993	contain	-0.049874
-3.391993	back	-0.049874
-2.914872	phone	-0.049874
-3.391993	course	-0.049874
-3.391993	take	-0.049874
-2.914872	early	-0.049874
-3.391993	6-year-old	-0.049874
-2.914872	year	-0.174813
-2.049570	for	-0.070077
-3.090963	stricter	-0.049874
-3.391993	chipping	-0.049874
-2.789933	balachandran	-0.146784
-3.391993	returning	-0.049874
-3.391993	legal	-0.049874
-3.391993	sinn	-0.049874
-3.090963	killed	-0.049874
-3.391993	law	-0.049874
-3.391993	woman	-0.049874
-3.391993	skies	-0.049874
-3.391993	town	-0.049874
-3.391993	comments	-0.049874
-3.391993	elementary	-0.049874
-3.090963	kindergarten	-0.049874
-3.090963	our	-0.049874
-3.391993	deferred	-0.049874
-3.090963	opposition	-0.049874
-3.090963	third-floor	-0.049874
-3.391993	around	-0.049874
-3.391993	tiger	-0.049874
-2.914872	including	-0.049874
-3.391993	forces	-0.049874
-2.914872	nippon	-0.526995
-3.090963	witnesses	-0.350904
-3.090963	tests	-0.049874
-3.391993	vice	-0.049874
-2.914872	can	-0.049874
-3.090963	rallies	-0.049874
-3.391993	codes	-0.049874
-3.391993	wearing	-0.049874
-3.391993	3-1	-0.049874
-3.391993	block	-0.049874
-3.391993	golf	-0.049874
-2.914872	united	-0.049874
-3.391993	told	-0.049874
-3.391993	grandmothers	-0.049874
-3.391993	ago	-0.049874
-3.391993	accountant	-0.049874
-3.391993	21,411	-0.049874
-99.000000	<s>	-0.484934
-2.789933	but	-0.049874
-3.391993	flammable	-0.049874
-3.391993	make	-0.049874
-3.391993	left	-0.049874
-3.391993	regional	-0.049874
-3.391993	worse	-0.049874
-3.391993	converted	-0.049874
-3.391993	held	-0.049874
-3.391993	major	-0.049874
-3.391993	near	-0.049874
-3.391993	firefighters	-0.049874
-3.391993	north	-0.049874
-3.391993	chief	-0.049874
-3.391993	reunited	-0.049874
-2.914872	east	-0.225965
-3.391993	program	-0.049874
-3.090963	companies	-0.049874
-3.391993	lost	-0.049874
-3.391993	victims	-0.049874
-3.391993	entered	-0.049874
-3.391993	help	-0.049874
-3.391993	fight	-0.049874
-3.391993	enters	-0.049874
-3.391993	130	-0.049874
-2.693023	her	-0.049874
-3.391993	?	-0.049874
-2.693023	</s>
-2.693023	company	-0.049874
-3.391993	test	-0.049874
-3.391993	makeshift	-0.049874
-3.391993	framed	-0.049874
-3.391993	liberation	-0.049874
-2.914872	political	-0.174813
-3.391993	pledge	-0.049874
-3.391993	fund-raising	-0.049874
-3.090963	too	-0.049874
-3.391993	37	-0.049874
-3.090963	meters	-0.049874
-3.090963	all	-0.049874
-3.391993	koh	-0.049874
-3.391993	newcastle	-0.049874
-3.090963	together	-0.049874
-3.391993	capacity	-0.049874
-3.391993	rooms	-0.049874
-3.090963	goal	-0.049874
-3.391993	muslim	-0.049874
-3.391993	independence	-0.049874
-3.391993	solveig	-0.049874
-2.789933	party	-0.049874
-3.391993	hugged	-0.049874
-3.391993	lower	-0.049874
-3.391993	twice	-0.049874
-2.546895	after	-0.292912
-3.391993	citizens	-0.049874
-2.914872	began	-0.049874
-2.914872	penalty	-0.049874
-3.391993	homeland	-0.049874
-3.391993	placing	-0.049874
-3.391993	dealt	-0.049874
-3.391993	keep	-0.049874
-3.391993	john	-0.049874
-3.391993	specify	-0.049874
-3.391993	activists	-0.049874
-3.391993	ulster	-0.049874
-3.391993	malays	-0.049874
-1.599601	the	-0.124703
-3.391993	except	-0.049874
-3.391993	safer	-0.049874
-3.391993	net	-0.049874
-3.391993	apparent	-0.049874
-3.391993	anticipated	-0.049874
-3.391993	corner	-0.049874
-3.090963	autonomy	-0.350904
-3.391993	international	-0.049874
-3.391993	giant	-0.049874
-3.391993	among	-0.049874
-3.391993	going	-0.049874
-3.090963	until	-0.049874
-2.488903	mahathir	-0.101027
-2.488903	'	-0.101027
-3.391993	never	-0.049874
-3.391993	blocks	-0.049874
-3.391993	reform	-0.049874
-3.090963	challenge	-0.049874
-3.391993	justice	-0.049874
-2.789933	leader	-0.049874
-3.391993	challenged	-0.049874
-3.391993	freight	-0.049874
-2.546895	out	-0.116821
-3.391993	largest	-0.049874
-3.391993	knee	-0.049874
-3.391993	b.	-0.049874
-3.391993	happen	-0.049874
-3.391993	industry	-0.049874
-3.391993	if	-0.049874
-3.391993	services	-0.049874
-3.391993	familiar	-0.049874
-3.391993	length	-0.049874
-3.090963	seoul	-0.174813
-3.391993	although	-0.049874
-3.391993	targeted	-0.049874
-3.391993	granted	-0.049874
-3.391993	state-level	-0.049874
-3.391993	appeal	-0.049874
-3.391993	stairs	-0.049874
-3.090963	telephone	-0.049874
-2.914872	being	-0.049874
-2.914872	japan	-0.225965
-3.391993	anti-independence	-0.049874
-3.391993	no	-0.049874
-3.090963	guard	-0.049874
-3.391993	similar	-0.049874
-3.391993	lankan	-0.049874
-3.391993	scoreless	-0.049874
-3.090963	fighting	-0.049874
-3.391993	training	-0.049874
-3.391993	jailed	-0.049874
-3.391993	court	-0.049874
-2.789933	chinese	-0.049874
-3.391993	public	-0.049874
-3.391993	chanting	-0.049874
-2.914872	systems	-0.146784
-2.789933	clinton	-0.049874
-3.391993	even	-0.049874
-3.391993	prove	-0.049874
-3.391993	fired	-0.049874
-3.391993	star	-0.049874
-3.391993	altar	-0.049874
-3.391993	celebration	-0.049874
-3.090963	mainland	-0.049874
-3.391993	73-year-old	-0.049874
-3.391993	survived	-0.049874
-3.391993	third	-0.049874
-3.391993	1996	-0.049874
-3.391993	money	-0.049874
-3.391993	those	-0.049874
-3.391993	yen	-0.049874
-3.391993	swept	-0.049874
-3.391993	three-story	-0.049874
-3.391993	dozen	-0.049874
-3.391993	viking	-0.049874
-3.391993	formation	-0.049874
-3.391993	telegraph	-0.049874
-3.391993	jumped	-0.049874
-3.391993	avoided	-0.049874
-3.391993	timor	-0.049874
-3.391993	itself	-0.049874
-2.914872	end	-0.225965
-3.391993	russians	-0.049874
-3.391993	arrested	-0.049874
-3.391993	states	-0.049874
-3.391993	facing	-0.049874
-2.914872	adults	-0.049874
-3.391993	concrete	-0.049874
-3.391993	sea	-0.049874
-3.391993	talks	-0.049874
-3.391993	lee	-0.049874
-3.391993	turn	-0.049874
-3.391993	caused	-0.049874
-3.391993	cruel	-0.049874
-2.391993	is	-0.049874
-3.391993	irish	-0.049874
-3.391993	summer	-0.049874
-2.488903	also	-0.049874
-3.391993	place	-0.049874
-3.391993	living	-0.049874
-3.391993	posts	-0.049874
-2.693023	anwar	-0.049874
-3.090963	territory	-0.049874
-3.090963	100	-0.049874
-3.391993	wasting	-0.049874
-3.391993	skipping	-0.049874
-3.391993	midfielder	-0.049874
-3.391993	checked	-0.049874
-3.391993	spread	-0.049874
-3.391993	stunned	-0.049874
-3.391993	bare-chested	-0.049874
-3.391993	paul	-0.049874
-3.391993	dna	-0.049874
-3.391993	befitting	-0.049874
-3.391993	popular	-0.049874
-2.546895	had	-0.116821
-2.693023	government	-0.049874
-3.391993	1.48	-0.049874
-2.914872	aarones	-0.049874
-3.090963	runs	-0.049874
-3.391993	special	-0.049874
-2.789933	who	-0.049874
-3.391993	social	-0.049874
-3.391993	between	-0.049874
-3.391993	house	-0.049874
-3.090963	west	-0.049874
-3.391993	formed	-0.049874
-2.488903	thursday	-0.225965
-2.914872	communications	-0.049874
-3.391993	lau	-0.049874
-3.090963	made	-0.049874
-3.391993	these	-0.049874
-3.090963	floors	-0.049874
-3.391993	understand	-0.049874
-3.391993	helicopters	-0.049874
-1.675990	in	-0.350904
-3.391993	just	-0.049874
-3.391993	tigers	-0.049874
-3.090963	huge	-0.350904
-3.391993	saw	-0.049874
-3.391993	maliana	-0.049874
-3.391993	stair-cases	-0.049874
-3.391993	cut	-0.049874
-3.391993	narrow	-0.049874
-2.613842	their	-0.049874
-3.090963	outside	-0.049874
-3.391993	18	-0.049874
-3.391993	showed	-0.049874
-3.391993	rule	-0.049874
-3.391993	quickly	-0.049874
-3.391993	ibrahim	-0.049874
-3.391993	doubts	-0.049874
-3.391993	wood	-0.049874
-3.391993	adjourned	-0.049874
-3.391993	declined	-0.049874
-3.391993	t	-0.049874
-3.391993	warrants	-0.049874
-3.391993	audience	-0.049874
-3.391993	charred	-0.049874
-3.391993	nations	-0.049874
-3.391993	rebels	-0.049874
-3.391993	ismail	-0.049874
-2.789933	more	-0.350904
-3.391993	offering	-0.049874
-3.391993	corporate	-0.049874
-3.391993	black	-0.049874
-3.391993	punishment	-0.049874
-3.391993	very	-0.049874
-3.391993	celebrations	-0.049874
-3.090963	ruling	-0.049874
-3.391993	congress	-0.049874
-2.789933	hu	-0.049874
-3.391993	talked	-0.049874
-3.090963	parent	-0.049874
-3.391993	upper	-0.049874
-3.391993	western	-0.049874
-3.391993	democratic	-0.049874
-3.391993	3rd	-0.049874
-3.391993	broke	-0.049874
-3.391993	british-style	-0.049874
-3.391993	pact	-0.049874
-3.391993	separately	-0.049874
-3.090963	ruled	-0.049874
-3.391993	saturday	-0.049874
-3.391993	heated	-0.049874
-3.391993	tony	-0.049874
-3.391993	structural	-0.049874
-3.391993	floor	-0.049874
-3.090963	several	-0.049874
-3.391993	fast	-0.049874
-3.391993	lawmakers	-0.049874
-2.789933	used	-0.049874
-3.391993	intended	-0.049874
-3.391993	data	-0.049874
-3.391993	leaped	-0.049874
-3.391993	tokyo	-0.049874
-3.391993	absolutely	-0.049874
-3.090963	forensic	-0.049874
-3.391993	landed	-0.049874
-3.391993	only	-0.049874
-3.391993	faster	-0.049874
-3.391993	scrambled	-0.049874
-2.350600	as	-0.087663
-3.391993	owner	-0.049874
-3.090963	denies	-0.350904
-3.391993	fainted	-0.049874
-3.391993	holiday	-0.049874
-3.391993	propel	-0.049874
-3.391993	personnel	-0.049874
-3.391993	belongs	-0.049874
-3.391993	wailing	-0.049874
-3.391993	crowds	-0.049874
-3.391993	fearing	-0.049874
-3.391993	way	-0.049874
-3.391993	britain	-0.049874
-3.391993	covering	-0.049874
-3.090963	mothers	-0.049874
-3.391993	awarded	-0.049874
-3.391993	wong	-0.049874
-3.391993	majority	-0.049874
-3.391993	violation	-0.049874
-3.391993	example	-0.049874
-3.391993	mostrom	-0.049874
-3.391993	stretch	-0.049874
-3.391993	54	-0.049874
-2.914872	dead	-0.174813
-3.391993	crowd	-0.049874
-3.391993	know	-0.049874
-3.391993	howard	-0.049874
-3.391993	struck	-0.049874
-3.090963	system	-0.049874
-3.391993	marked	-0.049874
-2.914872	each	-0.049874
-2.789933	karlsson	-0.174813
-3.391993	measures	-0.049874
-2.391993	have	-0.095632
-3.391993	relatives	-0.049874
-3.090963	swedish	-0.174813
-2.914872	she	-0.049874
-3.391993	chee-hwa	-0.049874
-3.391993	banner	-0.049874
-3.391993	malin	-0.049874
-3.391993	harragon	-0.049874
-3.391993	got	-0.049874
-3.391993	important	-0.049874
-3.391993	top	-0.049874
-3.391993	adams	-0.049874
-3.391993	resolve	-0.049874
-2.789933	last	-0.174813
-3.391993	while	-0.049874
-3.391993	ireland	-0.049874
-3.391993	regime	-0.049874
-2.613842	would	-0.129055
-3.391993	tumbled	-0.049874
-2.789933	years	-0.049874
-3.391993	already	-0.049874
-2.914872	minutes	-0.225965
-3.391993	security	-0.049874
-3.391993	on-going	-0.049874
-3.391993	mobile	-0.049874
-3.391993	justices	-0.049874
-3.391993	trial	-0.049874
-3.391993	conspiracy	-0.049874
-3.391993	square	-0.049874
-3.391993	waterfront	-0.049874
-3.391993	bodies	-0.049874
-3.391993	faked	-0.049874
-2.245865	two	-0.112022
-3.391993	structures	-0.049874
-3.391993	cups	-0.049874
-3.391993	may	-0.049874
-2.693023	are	-0.129055
-1.362609	.	-1.049874
-3.391993	fled	-0.049874
-3.090963	must	-0.049874
-3.391993	tallest	-0.049874
-3.391993	consulting	-0.049874
-3.391993	1.83	-0.049874
-3.391993	constitution	-0.049874
-3.391993	level	-0.049874
-3.391993	eastern	-0.049874
-3.391993	russia	-0.049874
-3.391993	won	-0.049874
-3.391993	manner	-0.049874
-2.914872	fire	-0.049874
-2.789933	now	-0.049874
-3.391993	convinced	-0.049874
-3.391993	victory	-0.049874
-3.391993	league	-0.049874
-3.391993	controlled	-0.049874
-3.391993	again	-0.049874
-3.391993	touched	-0.049874
-3.391993	sacking	-0.049874
-3.391993	reached	-0.049874
-3.391993	morning	-0.049874
-3.391993	strengthen	-0.049874
-3.090963	10	-0.049874
-3.391993	highest	-0.049874
-2.914872	south	-0.526995
-3.090963	new	-0.049874
-3.391993	sealand	-0.049874
-3.391993	joe	-0.049874
-3.391993	shutout	-0.049874
-3.391993	speaking	-0.049874
-3.391993	split	-0.049874
-3.391993	accusations	-0.049874
-3.391993	appeared	-0.049874
-3.391993	stayed	-0.049874
-3.391993	lofted	-0.049874

\2-grams:
-0.903928	fired to	-0.024598
-1.869647	but not	-0.024598
-2.931027	, narrow	-0.024598
-0.901418	attending a	-0.024598
-1.151726	challenge to	-0.024598
-0.961723	1.48 million	-0.024598
-2.732061	a migrant	-0.024598
-2.964647	the majority	-0.024598
-0.946191	reunited with	-0.024598
-0.951775	400 children	-0.024598
-0.958857	156 years	-0.024598
-2.931027	, sending	-0.024598
-1.734162	people agree	-0.024598
-1.544135	fire that	-0.024598
-0.951775	school children	-0.024598
-1.259887	several rallies	-0.024598
-1.656402	former rebel	-0.024598
-0.963163	next decade	-0.024598
-1.262753	white house	-0.024598
-2.312748	were trapped	-0.024598
-2.048435	that he	-0.024598
-1.641019	over karlsson	-0.024598
-1.274456	_ a	-0.024598
-0.206319	prime minister	-0.024598
-1.437409	international carrier	-0.024598
-2.964647	the conversation	-0.024598
-2.678572	of helicopters	-0.024598
-1.892747	have their	-0.024598
-1.031854	immigrants .	-0.024598
-1.434892	teachers in	-0.024598
-1.197110	that hong	-0.325628
-1.259887	such immigrants	-0.024598
-2.047826	has turned	-0.024598
-1.698797	but were	-0.024598
-1.734162	camp accommodating	-0.024598
-1.437409	opposition democratic	-0.024598
-0.895207	2-0 in	-0.024598
-1.785348	ntt has	-0.024598
-1.254212	turned up	-0.024598
-1.584420	minister has	-0.024598
-2.170677	on each	-0.024598
-1.262753	kids didn	-0.024598
-1.031854	prisoners .	-0.024598
-2.964647	the move	-0.024598
-1.355394	_ for	-0.024598
-1.473273	attack on	-0.024598
-1.251446	all of	-0.024598
-1.656402	half befitting	-0.024598
-2.725220	, teachers	-0.024598
-2.630446	and witnesses	-0.024598
-0.960288	dignitaries including	-0.024598
-2.581089	to characterize	-0.024598
-2.255812	" </s>
-0.830043	chrysanthemums ,	-0.024598
-2.051213	the first	-0.024598
-1.871213	they also	-0.024598
-1.437409	aarones leaped	-0.024598
-1.893552	ntt spokesman	-0.024598
-0.901418	wearing a	-0.024598
-1.262753	mothers fainted	-0.024598
-2.581089	to keep	-0.024598
-1.522664	early thursday	-0.024598
-1.906017	but critics	-0.024598
-0.844392	from the	-0.024598
-1.615904	to say	-0.024598
-1.509101	, and	-0.024598
-1.132136	norwegians and	-0.024598
-0.948974	no one	-0.024598
-0.960288	regulated phone	-0.024598
-1.558534	into a	-0.024598
-1.560917	armed struggle	-0.024598
-2.196750	that flew	-0.024598
-1.838323	about how	-0.024598
-2.014112	he would	-0.024598
-2.196750	that advantage	-0.024598
-0.957432	u.s. president	-0.024598
-2.732061	a boat	-0.024598
-0.961723	freight containers	-0.024598
-1.990366	by asking	-0.024598
-1.843354	one hong	-0.024598
-0.889579	mahathir 's	-0.024598
-1.657827	we saw	-0.024598
-0.891522	violation of	-0.024598
-2.725220	, leader	-0.024598
-1.243079	meters )	-0.024598
-2.893894	<s> it	-0.024598
-0.963163	hege riise	-0.024598
-0.958857	retiree who	-0.024598
-1.492695	and a	-0.024598
-1.022161	as they	-0.024598
-1.232224	leaders at	-0.024598
-0.963163	male fan	-0.024598
-1.213858	them that	-0.024598
-1.216435	timor on	-0.024598
-0.963163	migrant influx	-0.024598
-1.400349	't have	-0.024598
-2.583212	of adults	-0.024598
-1.377290	few hong	-0.024598
-1.437409	united malays	-0.024598
-0.960288	roll call	-0.024598
-1.331197	before and	-0.024598
-1.656402	her husband	-0.024598
-2.022448	the dormitory	-0.024598
-0.933883	demonstrators were	-0.024598
-0.953182	12,242 )	-0.024598
-1.491106	by the	-0.024598
-1.717461	people can	-0.024598
-0.903928	rose to	-0.024598
-1.280404	kept to	-0.024598
-0.891522	short of	-0.024598
-0.953182	centimeter )	-0.024598
-1.538648	center officials	-0.024598
-1.464071	wednesday to	-0.024598
-2.964647	the waterfront	-0.024598
-0.951775	enters its	-0.024598
-0.951775	split its	-0.024598
-1.631116	) a	-0.024598
-3.127434	<s> hege	-0.024598
-0.961723	work together	-0.024598
-2.931027	, along	-0.024598
-1.533254	now china	-0.024598
-1.731378	ntt 's	-0.024598
-0.832171	met .	-0.024598
-0.832171	september .	-0.024598
-0.954594	itself into	-0.024598
-2.931027	, outshooting	-0.024598
-0.953182	lasted about	-0.024598
-2.732061	a public	-0.024598
-0.830043	kam-wah ,	-0.024598
-0.963163	martin lee	-0.024598
-1.312505	part in	-0.024598
-2.277656	for amnesty	-0.024598
-0.883044	entered the	-0.024598
-0.868275	in a	-0.024598
-0.963163	3-1 victory	-0.024598
-0.963163	recreational program	-0.024598
-1.337982	center in	-0.024598
-2.194158	was killed	-0.024598
-1.656402	tamil minority	-0.024598
-0.957432	towered over	-0.024598
-0.892747	fainted and	-0.024598
-0.948974	celebration as	-0.024598
-1.147296	under a	-0.024598
-0.963163	ann kristin	-0.024598
-2.678572	of living	-0.024598
-2.678572	of 21,411	-0.024598
-1.734162	their limits	-0.024598
-1.907425	' regime	-0.024598
-0.963163	lost 6-year-old	-0.024598
-1.408316	say about	-0.024598
-0.905282	) </s>
-2.732061	a formation	-0.024598
-2.692087	and sinn	-0.024598
-1.936588	his wife	-0.024598
-2.350266	's world	-0.024598
-1.994586	is being	-0.024598
-1.259887	tripped pettersen	-0.024598
-1.130012	parents of	-0.024598
-0.947580	away at	-0.024598
-1.610136	<s> he	-0.121508
-0.937896	, "	-0.267636
-1.615669	could be	-0.024598
-1.656402	minister tony	-0.024598
-1.555242	telephone west	-0.024598
-2.964647	the conversations	-0.024598
-1.609236	minister mahathir	-0.024598
-2.931027	, 3rd	-0.024598
-0.960288	rebel groups	-0.024598
-0.958857	ulrika karlsson	-0.024598
-1.254212	gave clinton	-0.024598
-0.953182	persuaded they	-0.024598
-0.963163	celebrate ?	-0.024598
-2.028155	as 1.48	-0.024598
-1.874551	one with	-0.024598
-1.262753	sri lankan	-0.024598
-1.305071	before the	-0.024598
-0.830043	1997 ,	-0.024598
-1.226897	killed two	-0.024598
-2.678572	of strength	-0.024598
-0.963163	frequent opponents	-0.024598
-1.428896	guards dead	-0.024598
-0.961723	mohamad flew	-0.024598
-0.903928	return to	-0.024598
-1.642395	could face	-0.024598
-0.255025	19 children	-0.325628
-2.376697	to their	-0.024598
-2.638489	in demonstrations	-0.024598
-1.910253	) southwest	-0.024598
-2.175219	and hong	-0.024598
-2.255812	" president	-0.024598
-1.119385	, the	-0.024598
-2.964647	the stairs	-0.024598
-0.832171	relatives .	-0.024598
-1.433132	local leaders	-0.024598
-0.951775	decade from	-0.024598
-1.685871	company after	-0.024598
-1.234913	high as	-0.024598
-0.960288	51st minute	-0.024598
-2.630446	and killed	-0.024598
-1.951775	have entered	-0.024598
-1.181739	attack .	-0.024598
-1.692300	said the	-0.024598
-1.437409	call lasted	-0.024598
-1.031854	system .	-0.024598
-2.097650	said an	-0.024598
-2.218064	was fired	-0.024598
-2.219431	that swept	-0.024598
-1.500146	out in	-0.024598
-2.657631	a third-floor	-0.024598
-1.262753	where 18	-0.024598
-2.678572	of posts	-0.024598
-2.678572	of dignitaries	-0.024598
-2.250143	for sri	-0.024598
-1.437409	united states	-0.024598
-1.262753	million yen	-0.024598
-0.958857	dozen former	-0.024598
-1.906017	ntt docomo	-0.024598
-2.692087	and asked	-0.024598
-2.062917	has retired	-0.024598
-0.830043	adams ,	-0.024598
-1.555242	being heard	-0.024598
-1.544109	she used	-0.024598
-2.062917	has banded	-0.024598
-0.963163	drawn-out recession	-0.024598
-2.277656	for days	-0.024598
-2.732061	a show	-0.024598
-1.596703	) of	-0.024598
-0.903928	responding to	-0.024598
-0.963163	virtual monopoly	-0.024598
-1.657827	officials marked	-0.024598
-0.830043	megaphones ,	-0.024598
-2.732061	a nationwide	-0.024598
-2.857263	the reorganization	-0.024598
-2.870375	. he	-0.024598
-0.963163	anti-independence militia	-0.024598
-1.979350	is more	-0.024598
-0.957432	data corp.	-0.024598
-2.289824	and as	-0.024598
-1.254257	minute and	-0.024598
-1.327147	mahathir ,	-0.024598
-0.939310	grip on	-0.024598
-1.628826	fire wednesday	-0.024598
-1.013086	at a	-0.024598
-0.954594	prowess after	-0.024598
-0.948974	known as	-0.024598
-1.642395	could get	-0.024598
-1.245836	taken into	-0.024598
-2.581089	to welcome	-0.024598
-1.132136	companies and	-0.024598
-2.303777	said 21	-0.024598
-2.964647	the lives	-0.024598
-1.560917	been changed	-0.024598
-0.883044	welcome the	-0.024598
-0.417082	part of	-0.024598
-1.257041	ruling united	-0.024598
-0.960288	internet service	-0.024598
-0.957432	promises are	-0.024598
-2.277656	for comments	-0.024598
-0.883044	among the	-0.024598
-0.954594	cases out	-0.024598
-2.732061	a finalist	-0.024598
-1.713074	, which	-0.024598
-2.277656	for example	-0.024598
-1.709346	who now	-0.024598
-2.857263	the need	-0.024598
-3.127434	<s> while	-0.024598
-0.958857	fein-ira leader	-0.024598
-0.963163	defending champion	-0.024598
-1.656402	her forehead	-0.024598
-1.512326	used by	-0.024598
-1.262753	ruled saturday	-0.024598
-0.963163	riise converted	-0.024598
-2.312748	were celebrating	-0.024598
-2.657631	a long-distance	-0.024598
-0.942049	security was	-0.024598
-1.437409	all bodies	-0.024598
-0.963163	victims burned	-0.024598
-0.832171	sinhalese .	-0.024598
-0.963163	jorgensen sent	-0.024598
-2.964647	the 51st	-0.024598
-1.254212	mainland chinese	-0.024598
-2.732061	a tough	-0.024598
-0.895207	members in	-0.024598
-2.931027	, 1997	-0.024598
-2.638489	in injury	-0.024598
-1.232224	walters has	-0.024598
-0.946191	dealt with	-0.024598
-2.386943	" special	-0.024598
-1.028487	executive ,	-0.024598
-1.482712	she was	-0.024598
-0.960288	independence _	-0.024598
-0.957432	pvs </s>
-2.657631	a free	-0.024598
-2.851095	, witnesses	-0.024598
-2.964647	the tallest	-0.024598
-0.942049	guarantees hong	-0.024598
-1.262753	crowds showed	-0.024598
-0.963163	right side	-0.024598
-2.637892	the people	-0.024598
-1.799692	which 54	-0.024598
-2.657631	a construction	-0.024598
-2.042466	kong flags	-0.024598
-1.660335	at and	-0.024598
-2.857263	the night	-0.024598
-2.674055	in place	-0.024598
-1.428896	can 't	-0.024598
-0.830043	chance ,	-0.024598
-2.732061	a fund-raising	-0.024598
-0.960288	take part	-0.024598
-0.891522	complaints of	-0.024598
-0.963163	captain paul	-0.024598
-0.832171	identification .	-0.024598
-1.381097	home of	-0.024598
-1.262753	shot skipping	-0.024598
-2.386943	's court	-0.024598
-0.499330	in the	-0.049422
-0.954594	operations into	-0.024598
-1.031854	goal .	-0.024598
-2.964647	the length	-0.024598
-0.954594	rushed out	-0.024598
-1.176993	past ,	-0.024598
-0.950372	repeatedly he	-0.024598
-2.218064	was persuaded	-0.024598
-1.906017	also manages	-0.024598
-1.438844	things quickly	-0.024598
-2.312748	were blocked	-0.024598
-1.437409	phone services	-0.024598
-0.903928	declined to	-0.024598
-1.804939	but he	-0.024598
-2.350266	's west	-0.024598
-2.074651	with all	-0.024598
-1.259887	blair gave	-0.024598
-2.092319	with relevant	-0.024598
-3.127434	<s> unidentified	-0.024598
-1.502229	she has	-0.024598
-2.627748	, china	-0.024598
-1.357206	up the	-0.024598
-1.533254	face china	-0.024598
-1.907425	from 1.6	-0.024598
-1.649342	her height	-0.024598
-0.432106	safety standards	-0.024598
-1.993404	kong people	-0.024598
-2.028155	one banner	-0.024598
-0.958857	bill clinton	-0.024598
-0.939310	lanka 's	-0.024598
-0.963163	corridor stretching	-0.024598
-2.386943	's retirement	-0.024598
-2.674055	in celebration	-0.024598
-0.883044	took the	-0.024598
-0.832171	rivals .	-0.024598
-0.963163	grandmothers hugged	-0.024598
-0.830043	2000 ,	-0.024598
-0.963163	square pro-democracy	-0.024598
-2.674055	in maliana	-0.024598
-0.832171	charge .	-0.024598
-1.433132	monument ceremony	-0.024598
-0.960288	oversees nippon	-0.024598
-1.480333	seoul were	-0.024598
-2.202852	on trial	-0.024598
-2.135207	<s> also	-0.325628
-2.350266	" what	-0.024598
-0.830043	yong-se ,	-0.024598
-1.259933	building in	-0.024598
-1.176993	there ,	-0.024598
-0.958857	back now	-0.024598
-2.091114	was out	-0.024598
-0.961723	behind any	-0.024598
-0.961723	held several	-0.024598
-2.067125	he survived	-0.024598
-1.578431	chinese with	-0.024598
-2.062917	an independent	-0.024598
-0.950372	attacked by	-0.024598
-2.657631	a goal	-0.024598
-0.961723	getting too	-0.024598
-0.960288	fire-extinguishing systems	-0.024598
-1.545485	dead could	-0.024598
-1.206218	tests for	-0.024598
-1.262753	until friday	-0.024598
-1.839692	thursday he	-0.024598
-0.937947	convinced that	-0.024598
-1.569528	was the	-0.024598
-1.843354	as hong	-0.024598
-0.953182	doubts about	-0.024598
-0.895207	scored in	-0.024598
-1.549640	party earlier	-0.024598
-2.964647	the course	-0.024598
-1.656402	corp. officially	-0.024598
-0.963163	town 210	-0.024598
-0.596497	systems ,	-0.024598
-2.678572	of control	-0.024598
-0.832171	services .	-0.024598
-0.957432	struck it	-0.024598
-0.255873	quarterfinal match	-0.024598
-1.950241	, ntt	-0.024598
-2.316447	" things	-0.024598
-0.933883	warrants for	-0.024598
-1.988576	, she	-0.024598
-1.262753	spokesman kazuhiko	-0.024598
-1.857684	about 450	-0.024598
-1.910267	his former	-0.024598
-2.113955	for mahathir	-0.024598
-1.735399	which mahathir	-0.024598
-0.963163	6 feet	-0.024598
-1.257041	blair _	-0.024598
-0.830043	control ,	-0.024598
-2.678572	of fallen	-0.024598
-0.963163	nations personnel	-0.024598
-1.560917	center staff	-0.024598
-1.428896	each end	-0.024598
-1.882183	by children	-0.024598
-0.933883	sentence for	-0.024598
-0.961723	regime must	-0.024598
-0.960288	four adults	-0.024598
-2.732061	a retiree	-0.024598
-2.172079	of that	-0.024598
-2.857263	the height	-0.024598
-0.963163	ismail formed	-0.024598
-1.404314	kept its	-0.024598
-2.771237	the ceremony	-0.024598
-2.964647	the release	-0.024598
-0.241401	power .	-0.325628
-0.892747	dna and	-0.024598
-1.259887	runs until	-0.024598
-1.262753	yellow sea	-0.024598
-1.437409	british rule	-0.024598
-0.960288	structures can	-0.024598
-2.122282	two regional	-0.024598
-0.953182	inch (	-0.024598
-1.412354	minute after	-0.024598
-0.892747	economy and	-0.024598
-1.858171	children from	-0.024598
-0.963163	fast surrendering	-0.024598
-2.581089	to conduct	-0.024598
-0.891522	crowd of	-0.024598
-2.487527	to call	-0.024598
-2.975276	. white	-0.024598
-2.315939	to about	-0.024598
-0.937947	prove that	-0.024598
-1.881435	ntt communications	-0.024598
-0.830043	styrofoam ,	-0.024598
-2.376640	and about	-0.024598
-1.941498	with one	-0.024598
-1.254257	british and	-0.024598
-0.963163	december 1989	-0.024598
-1.262753	moderate tamils	-0.024598
-0.963163	on-going knee	-0.024598
-2.964647	the tokyo	-0.024598
-0.830043	hwasung ,	-0.024598
-2.630446	and free	-0.024598
-1.685871	not be	-0.024598
-2.783613	, local	-0.024598
-2.771237	the norwegian	-0.024598
-1.420547	earlier wednesday	-0.024598
-2.170677	on south	-0.024598
-2.674055	in hwasung	-0.024598
-1.240340	spoke from	-0.024598
-1.801108	had wanted	-0.024598
-2.007891	was at	-0.024598
-2.133343	's "	-0.024598
-2.062917	has held	-0.024598
-1.906017	( centimeter	-0.024598
-2.931027	, 26	-0.024598
-1.538648	years since	-0.024598
-1.243079	meters (	-0.024598
-0.901418	predict a	-0.024598
-2.062917	has stayed	-0.024598
-2.312748	were loudly	-0.024598
-0.556903	last month	-0.325628
-1.262753	injury time	-0.024598
-0.895207	injured in	-0.024598
-1.804939	ntt is	-0.024598
-0.954594	manages ntt	-0.024598
-2.964647	the point	-0.024598
-1.939310	they worked	-0.024598
-0.832171	arrested .	-0.024598
-0.958857	set up	-0.024598
-0.895207	manner in	-0.024598
-0.963163	won successive	-0.024598
-1.262753	several inches	-0.024598
-2.026761	is fast	-0.024598
-1.132136	system and	-0.024598
-1.419170	country '	-0.024598
-1.136413	free in	-0.024598
-1.657827	over victoria	-0.024598
-1.828192	kong 's	-0.024598
-2.176733	for beijing	-0.024598
-0.963163	got worse	-0.024598
-1.951775	have caused	-0.024598
-2.638489	in recent	-0.024598
-1.946581	by more	-0.024598
-0.961723	210 kilometers	-0.024598
-1.176993	investigation ,	-0.024598
-0.832171	going .	-0.024598
-2.409917	and had	-0.024598
-0.596497	balachandran ,	-0.024598
-2.068577	and were	-0.024598
-0.960288	provider business	-0.024598
-1.240427	wednesday ,	-0.024598
-1.747157	government has	-0.024598
-2.931027	, b.	-0.024598
-1.656402	when malin	-0.024598
-0.951775	18 children	-0.024598
-1.433132	telecommunications announced	-0.024598
-1.438844	second largest	-0.024598
-0.832171	banner .	-0.024598
-0.891522	chants of	-0.024598
-2.851095	, called	-0.024598
-2.657631	a shot	-0.024598
-0.951775	retired from	-0.024598
-2.312748	were already	-0.024598
-1.377290	including hong	-0.024598
-0.830043	hazardous ,	-0.024598
-2.594110	a minute	-0.024598
-1.262753	flags fluttered	-0.024598
-1.262753	west coast	-0.024598
-0.939310	1989 on	-0.024598
-2.657631	a long	-0.024598
-1.262753	outside stair-cases	-0.024598
-1.656402	could cut	-0.024598
-1.735583	would prove	-0.024598
-1.462574	but the	-0.024598
-1.538648	used her	-0.024598
-1.906017	( yards	-0.024598
-2.630446	and swedes	-0.024598
-2.628280	of power	-0.024598
-0.903928	except to	-0.024598
-1.327844	leader of	-0.024598
-0.963163	3rd graf	-0.024598
-0.961723	adjourned until	-0.024598
-1.663601	people have	-0.024598
-2.386943	" these	-0.024598
-1.031854	wife .	-0.024598
-0.963163	commonly known	-0.024598
-1.437409	't understand	-0.024598
-1.939310	have worked	-0.024598
-1.262753	white chrysanthemums	-0.024598
-0.901418	gulbrandsen a	-0.024598
-2.594110	a match	-0.024598
-1.262753	northern ireland	-0.024598
-2.628280	of penang	-0.024598
-0.963163	jintao unveiled	-0.024598
-0.892747	parade and	-0.024598
-1.136413	killed in	-0.024598
-0.514087	seoul .	-0.325628
-0.960288	understand how	-0.024598
-0.963163	tamil-majority town	-0.024598
-0.950372	handover is	-0.024598
-2.019132	an investigation	-0.024598
-0.950372	discrimination by	-0.024598
-1.262753	rallies planned	-0.024598
-1.428896	each call	-0.024598
-1.714713	<s> with	-0.325628
-1.599139	beijing has	-0.024598
-0.832171	britain .	-0.024598
-1.849865	kong was	-0.024598
-1.420547	british prime	-0.024598
-1.906017	( 130	-0.024598
-1.906017	ntt data	-0.024598
-0.507348	after a	-0.024598
-1.556819	, but	-0.024598
-1.471366	and other	-0.024598
-1.327818	end to	-0.024598
-1.273903	teachers ,	-0.024598
-2.053253	at rallies	-0.024598
-1.254212	flew past	-0.024598
-0.953182	yen (	-0.024598
-0.961723	130 miles	-0.024598
-2.202852	on tuesday	-0.024598
-0.277642	more than	-0.024598
-1.951775	have agreed	-0.024598
-3.127434	<s> speaking	-0.024598
-1.278352	and the	-0.024598
-0.963163	burned beyond	-0.024598
-0.963163	touched photos	-0.024598
-1.560917	hu jintao	-0.024598
-2.218064	was reunited	-0.024598
-2.277656	for questioning	-0.024598
-2.218064	was born	-0.024598
-0.961723	state-level leaders	-0.024598
-2.732061	a shutout	-0.024598
-0.903928	expected to	-0.024598
-0.892747	course and	-0.024598
-1.522664	later thursday	-0.024598
-0.963163	proper fire-extinguishing	-0.024598
-2.312748	were rushed	-0.024598
-1.705836	<s> hong	-0.626658
-1.251402	protege anwar	-0.024598
-0.830043	gunfire ,	-0.024598
-1.437409	united nations	-0.024598
-0.928092	they were	-0.024598
-2.725220	, clinton	-0.024598
-1.970703	as police	-0.024598
-2.218064	was intended	-0.024598
-1.906017	( 60	-0.024598
-2.692087	and proclaimed	-0.024598
-0.961723	critics say	-0.024598
-2.732061	a viking	-0.024598
-1.369868	norway 's	-0.024598
-2.538705	a former	-0.024598
-1.147296	peace a	-0.024598
-2.013064	one guard	-0.024598
-1.521359	year as	-0.024598
-0.891522	ministry of	-0.024598
-1.701379	people are	-0.024598
-2.029348	at balachandran	-0.024598
-0.903928	lawmakers to	-0.024598
-0.891522	shares of	-0.024598
-0.895207	finalist in	-0.024598
-0.963163	rugby league	-0.024598
-1.649342	former protege	-0.024598
-2.657631	a recent	-0.024598
-2.857263	the yellow	-0.024598
-2.857263	the mainland	-0.024598
-2.931027	, climbing	-0.024598
-1.656402	anwar won	-0.024598
-0.830043	celebrations ,	-0.024598
-0.795520	<s> "	-0.445603
-0.963163	lau kam-wah	-0.024598
-0.957432	three-story dormitory	-0.024598
-1.262753	companies offering	-0.024598
-0.641949	teachers were	-0.024598
-2.581089	to build	-0.024598
-1.544109	investigation center	-0.024598
-1.221634	child was	-0.024598
-1.907425	mahathir treated	-0.024598
-1.856272	be safer	-0.024598
-1.136413	night in	-0.024598
-1.920231	has said	-0.024598
-1.907425	' carelessness	-0.024598
-2.964647	the once-fragmented	-0.024598
-0.891522	anniversary of	-0.024598
-0.963163	activists chanted	-0.024598
-2.092319	with hoopla	-0.024598
-0.830043	forehead ,	-0.024598
-1.433132	penalty kick	-0.024598
-0.958857	fireman who	-0.024598
-0.830043	eelam ,	-0.024598
-2.771237	the political	-0.024598
-0.963163	legal dilemma	-0.024598
-1.734864	, saying	-0.200689
-2.699467	the leader	-0.024598
-2.316447	" lockhart	-0.024598
-2.581089	to washington	-0.024598
-0.255166	miles )	-0.024598
-2.186467	on what	-0.024598
-2.964647	the promises	-0.024598
-1.525288	penang is	-0.024598
-0.963163	covering eastern	-0.024598
-1.693556	it would	-0.024598
-2.771237	the groups	-0.024598
-2.218064	was revised	-0.024598
-2.678572	of shipping	-0.024598
-1.416431	most would	-0.024598
-0.963163	koh suk	-0.024598
-0.891522	term of	-0.024598
-1.251402	west corp.	-0.024598
-1.424701	aarones used	-0.024598
-0.963163	never happen	-0.024598
-2.218064	was tight	-0.024598
-2.167893	<s> more	-0.325628
-0.652542	this year	-0.024598
-1.151726	timor to	-0.024598
-2.060134	kong enters	-0.024598
-0.730596	would not	-0.024598
-1.560917	first floor	-0.024598
-1.864509	' </s>
-0.950372	dubbed "	-0.024598
-0.891522	way of	-0.024598
-0.950372	field by	-0.024598
-2.964647	the affluent	-0.024598
-0.963163	talked twice	-0.024598
-1.588507	to be	-0.024598
-2.732061	a drawn-out	-0.024598
-1.262753	100 anti-independence	-0.024598
-2.674055	in january	-0.024598
-0.620460	over the	-0.024598
-0.901418	launched a	-0.024598
-0.901418	come a	-0.024598
-1.132136	child and	-0.024598
-1.115434	down the	-0.024598
-1.560917	being controlled	-0.024598
-1.437409	once highly	-0.024598
-1.903928	they are	-0.024598
-1.642395	home state	-0.024598
-1.028487	reorganization ,	-0.024598
-1.821484	<s> ,	-0.024598
-0.960288	small groups	-0.024598
-1.262753	recent legal	-0.024598
-0.961723	50 meters	-0.024598
-0.895207	strength in	-0.024598
-0.960288	malays national	-0.024598
-1.243079	saying they	-0.024598
-0.961723	ireland peace	-0.024598
-1.544109	attack last	-0.024598
-2.140722	on which	-0.024598
-2.990366	. no	-0.024598
-2.062917	an audience	-0.024598
-0.832171	malaysia .	-0.024598
-1.031854	containers .	-0.024598
-1.262753	third-floor room	-0.024598
-1.420066	in penang	-0.024598
-1.125830	guards .	-0.024598
-0.830043	sodomy ,	-0.024598
-1.028487	colombo ,	-0.024598
-0.963163	midfielder towered	-0.024598
-0.832171	accountant .	-0.024598
-0.895207	crime in	-0.024598
-1.735583	are going	-0.024598
-2.964647	the blame	-0.024598
-2.219431	that took	-0.024598
-1.259887	100 kilometers	-0.024598
-1.278649	systems .	-0.024598
-1.549640	died because	-0.024598
-2.546509	in which	-0.024598
-2.277656	for sodomy	-0.024598
-2.678572	of potential	-0.024598
-0.942049	granted hong	-0.024598
-0.832171	3-0 .	-0.024598
-0.961723	jailed 10	-0.024598
-1.694850	would be	-0.024598
-0.939310	permitted on	-0.024598
-1.564354	one of	-0.024598
-0.963163	basic law	-0.024598
-0.427320	japan 's	-0.024598
-2.995152	<s> earlier	-0.024598
-1.136413	rallies in	-0.024598
-2.170677	on being	-0.024598
-0.939310	money on	-0.024598
-0.153075	nippon telegraph	-0.501719
-2.303777	said lau	-0.024598
-0.954594	ago after	-0.024598
-1.558070	karlsson tripped	-0.024598
-1.946581	by teachers	-0.024598
-2.010376	is announced	-0.024598
-1.433132	few mothers	-0.024598
-2.386943	" reunification	-0.024598
-1.549640	first half	-0.024598
-2.066343	the swedes	-0.024598
-1.219101	adults .	-0.024598
-2.082019	the northern	-0.024598
-1.609291	thursday in	-0.024598
-1.262753	any conspiracy	-0.024598
-1.734162	camp overlooking	-0.024598
-1.807171	' one	-0.024598
-0.946191	along with	-0.024598
-1.845139	government runs	-0.024598
-0.901418	unveiled a	-0.024598
-1.262753	our money	-0.024598
-1.420547	many people	-0.024598
-2.732061	a formula	-0.024598
-2.964647	the crowd	-0.024598
-0.963163	tight around	-0.024598
-2.492830	the '	-0.024598
-1.649342	president made	-0.024598
-0.958857	harragon last	-0.024598
-1.237618	making his	-0.024598
-0.961723	1.6 million	-0.024598
-0.832171	chee-hwa .	-0.024598
-0.961723	largely kept	-0.024598
-1.734162	their doubts	-0.024598
-2.082019	the owner	-0.325628
-2.057673	with british	-0.024598
-0.963163	retirement follows	-0.024598
-2.312748	were stacked	-0.024598
-2.097724	were "	-0.024598
-0.933883	leaped for	-0.024598
-0.901418	awarded a	-0.024598
-1.656402	than 58,000	-0.024598
-2.438863	of ntt	-0.024598
-1.649342	president kim	-0.024598
-1.237618	organization have	-0.024598
-0.963163	mostly muslim	-0.024598
-2.692087	and dealt	-0.024598
-0.832171	dilemma .	-0.024598
-0.963163	traditional funeral	-0.024598
-0.901418	survived a	-0.024598
-1.845139	government forensic	-0.024598
-0.953182	butchers '	-0.024598
-1.871866	<s> and	-0.325628
-0.429566	monument "	-0.325628
-1.531762	<s> but	-0.325628
-0.901418	included a	-0.024598
-3.127434	<s> separately	-0.024598
-2.066343	the blaze	-0.024598
-0.830043	21,411 ,	-0.024598
-2.732061	a star	-0.024598
-0.963163	trapped inside	-0.024598
-2.531793	to any	-0.024598
-1.560917	leader david	-0.024598
-1.151726	taken to	-0.024598
-0.830043	1983 ,	-0.024598
-1.420547	telecommunications company	-0.024598
-1.870375	by his	-0.024598
-2.386943	's liberation	-0.024598
-0.830043	recognition ,	-0.024598
-0.892747	telegraph and	-0.024598
-2.964647	the present	-0.024598
-2.960691	. aarones	-0.024598
-0.963163	chipping away	-0.024598
-0.939310	player 's	-0.024598
-0.957432	floated over	-0.024598
-0.593319	of the	-0.078956
-0.953182	gp-dj )	-0.024598
-1.437409	most cases	-0.024598
-0.950372	stem his	-0.024598
-1.437409	protesters scuffled	-0.024598
-0.963163	own independence	-0.024598
-2.470705	of china	-0.024598
-0.963163	muslim malaysia	-0.024598
-0.961723	step down	-0.024598
-3.056276	<s> walters	-0.024598
-0.963163	one-party communist	-0.024598
-2.122282	two structural	-0.024598
-1.254212	recent years	-0.024598
-2.067125	he added	-0.024598
-0.963163	john howard	-0.024598
-0.933883	bodies were	-0.024598
-0.832171	codes .	-0.024598
-2.692087	and grandmothers	-0.024598
-0.961723	wailing mothers	-0.024598
-1.734162	not specify	-0.024598
-1.734162	their megaphones	-0.024598
-1.906017	also injured	-0.024598
-1.893552	its autonomy	-0.024598
-2.857263	the charges	-0.024598
-1.125830	building .	-0.024598
-0.501473	police and	-0.024598
-0.891522	audience of	-0.024598
-2.082019	the norwegians	-0.024598
-1.245836	residency after	-0.024598
-0.933883	homeland for	-0.024598
-1.906017	its social	-0.024598
-2.931027	, activists	-0.024598
-0.832171	daughters .	-0.024598
-1.437409	can spread	-0.024598
-0.961723	general vote	-0.024598
-0.963163	prison sentence	-0.024598
-2.771237	the building	-0.024598
-2.771237	the deputy	-0.024598
-1.181739	match .	-0.024598
-0.950372	substantive "	-0.024598
-1.781686	police later	-0.024598
-0.961723	450 kindergarten	-0.024598
-1.893552	its financial	-0.024598
-0.953182	residents '	-0.024598
-0.961723	potential immigrants	-0.024598
-2.065718	at foxboro	-0.024598
-1.984370	as hu	-0.024598
-0.963163	charred ruins	-0.024598
-0.883044	overlooking the	-0.024598
-2.288477	to its	-0.024598
-2.581089	to work	-0.024598
-2.581089	to hear	-0.024598
-0.958857	hours before	-0.024598
-1.502308	is the	-0.024598
-2.964647	the traditional	-0.024598
-1.907425	from just	-0.024598
-0.960288	faster than	-0.024598
-2.674055	in 1996	-0.024598
-0.963163	dlrs 12,242	-0.024598
-2.196750	that blair	-0.024598
-1.656402	chinese vice	-0.024598
-0.883044	placing the	-0.024598
-0.963163	apparent violation	-0.024598
-1.438844	australian test	-0.024598
-2.581089	to pass	-0.024598
-0.891522	floor of	-0.024598
-1.793481	a few	-0.024598
-0.963163	makeshift mourning	-0.024598
-2.630446	and forensic	-0.024598
-2.349889	in two	-0.024598
-0.961723	similar attack	-0.024598
-0.963163	tokyo stock	-0.024598
-1.251402	immigrants over	-0.024598
-1.893552	but few	-0.024598
-1.415587	to a	-0.024598
-2.450910	, as	-0.024598
-0.807609	<s> the	-0.177208
-1.801108	out walking	-0.024598
-0.961723	upper floors	-0.024598
-0.542021	because of	-0.024598
-1.262753	stricter measures	-0.024598
-2.122282	two upper	-0.024598
-0.963163	electrical short-circuit	-0.024598
-0.960288	important than	-0.024598
-2.386943	's authority	-0.024598
-2.583212	of building	-0.024598
-2.060134	kong chief	-0.024598
-2.386943	's justices	-0.024598
-2.783613	, began	-0.024598
-0.963163	fund-raising dinner	-0.024598
-0.963163	russia 2-0	-0.024598
-1.970703	as officials	-0.024598
-1.497267	clinton an	-0.024598
-1.906017	ntt rose	-0.024598
-3.127434	<s> returning	-0.024598
-2.581089	to turn	-0.024598
-2.480980	, his	-0.024598
-0.832171	comments .	-0.024598
-0.895207	head in	-0.024598
-2.581089	to save	-0.024598
-1.246594	penang ,	-0.024598
-1.257041	10 minutes	-0.024598
-2.036592	the chinese	-0.024598
-1.656402	chinese congress	-0.024598
-1.031854	facility .	-0.024598
-0.524695	on the	-0.024598
-1.869647	also died	-0.024598
-1.843354	one was	-0.024598
-1.423527	. "	-0.422538
-0.963163	tallest woman	-0.024598
-1.437409	penalty area	-0.024598
-1.702526	which has	-0.024598
-2.487527	to get	-0.024598
-2.594110	a women	-0.024598
-1.725731	dormitory made	-0.024598
-0.963163	familiar rivals	-0.024598
-1.433132	how well	-0.024598
-0.956010	influx would	-0.024598
-2.674055	in vavuniya	-0.024598
-1.176993	armed ,	-0.024598
-1.384872	karlsson in	-0.024598
-1.345219	one ,	-0.024598
-2.732061	a roll	-0.024598
-0.963163	require dna	-0.024598
-1.657827	balachandran belongs	-0.024598
-1.560917	clinton talked	-0.024598
-0.963163	happen again	-0.024598
-1.656402	her talk	-0.024598
-1.936588	his challenge	-0.024598
-0.883044	characterize the	-0.024598
-0.830043	region ,	-0.024598
-2.396377	, an	-0.024598
-1.521971	had a	-0.024598
-0.830043	ji-su ,	-0.024598
-2.480980	, he	-0.024598
-0.832171	capacity .	-0.024598
-0.830043	heated ,	-0.024598
-1.437409	kim yong-se	-0.024598
-2.931027	, towing	-0.024598
-1.856272	be permitted	-0.024598
-1.845139	government denies	-0.024598
-2.004244	he had	-0.024598
-2.285300	of an	-0.024598
-1.237618	territory is	-0.024598
-1.259887	height advantage	-0.024598
-1.935575	at an	-0.024598
-2.303777	said macon	-0.024598
-1.337982	been in	-0.024598
-1.195236	, a	-0.024598
-2.732061	a makeshift	-0.024598
-1.262753	until june	-0.024598
-2.048435	that have	-0.024598
-1.237618	vote is	-0.024598
-2.857263	the sri	-0.024598
-0.830043	vavuniya ,	-0.024598
-0.946191	pleaded with	-0.024598
-1.642395	former australian	-0.024598
-1.642395	former deputy	-0.024598
-1.237618	saying he	-0.024598
-2.186467	on power	-0.024598
-1.031854	floors .	-0.024598
-0.961723	pro-democracy demonstrations	-0.024598
-0.963163	engineers involved	-0.024598
-0.954594	carried out	-0.024598
-1.251402	where anwar	-0.024598
-1.063023	has not	-0.024598
-0.963163	special administrative	-0.024598
-2.732061	a pharmaceutical	-0.024598
-0.961723	banded together	-0.024598
-1.058025	he is	-0.024598
-2.964647	the newcastle	-0.024598
-0.830043	strategists ,	-0.024598
-0.892747	trimble and	-0.024598
-1.555242	now runs	-0.024598
-1.990366	by relatives	-0.024598
-1.657827	since december	-0.024598
-0.939310	blame on	-0.024598
-0.830043	law ,	-0.024598
-1.735583	would require	-0.024598
-0.957432	minority since	-0.024598
-2.071298	two years	-0.024598
-0.830043	morning ,	-0.024598
-2.386943	's breakup	-0.024598
-0.067672	. </s>
-0.963163	accommodating 600	-0.024598
-2.995152	<s> each	-0.024598
-2.656378	<s> at	-0.024598
-0.963163	without weapons	-0.024598
-1.213858	demonstrations that	-0.024598
-2.857263	the fighting	-0.024598
-1.262753	want explanations	-0.024598
-0.651414	since anwar	-0.325628
-0.891522	north of	-0.024598
-3.127434	<s> u.s.	-0.024598
-1.609236	adults '	-0.024598
-1.245836	must be	-0.024598
-1.856272	be carried	-0.024598
-2.581089	to stem	-0.024598
-0.832171	industry .	-0.024598
-0.957432	sub-standard dormitory	-0.024598
-0.832171	market .	-0.024598
-2.628280	of them	-0.024598
-0.963163	funeral flower	-0.024598
-0.963163	5,000 short	-0.024598
-2.783613	, many	-0.024598
-1.907425	mahathir mohamad	-0.024598
-1.560917	attack occurred	-0.024598
-1.206218	worked for	-0.024598
-1.181739	party .	-0.024598
-0.892747	domestic and	-0.024598
-2.732061	a virtual	-0.024598
-0.430975	things are	-0.024598
-1.437409	norwegian substitute	-0.024598
-0.832171	area .	-0.024598
-0.960288	offering both	-0.024598
-2.692087	and accusations	-0.024598
-1.028487	standards ,	-0.024598
-1.400349	service have	-0.024598
-1.527952	home for	-0.024598
-0.951775	21 children	-0.024598
-1.734162	it 3-0	-0.024598
-2.857263	the parent	-0.024598
-0.954594	faked out	-0.024598
-0.951775	surrendering its	-0.024598
-0.832171	license .	-0.024598
-2.450910	, one	-0.024598
-2.931027	, especially	-0.024598
-1.907425	' complaints	-0.024598
-0.832171	net .	-0.024598
-1.028487	election ,	-0.024598
-1.734162	not yet	-0.024598
-2.692087	and punishment	-0.024598
-1.560917	before firefighters	-0.024598
-1.421927	will be	-0.024598
-2.995152	<s> once	-0.024598
-2.345732	and its	-0.024598
-2.732061	a black	-0.024598
-2.025589	with police	-0.024598
-2.692087	and struck	-0.024598
-1.262753	turned itself	-0.024598
-0.895207	maliana in	-0.024598
-1.622219	dormitory was	-0.024598
-2.851095	, parents	-0.024598
-1.720733	<s> as	-0.325628
-0.958857	democratic party	-0.024598
-0.939310	monopoly on	-0.024598
-1.259887	forensic tests	-0.024598
-0.953182	ibrahim thursday	-0.024598
-0.963163	imposing 6	-0.024598
-0.903928	close to	-0.024598
-0.939310	stop on	-0.024598
-1.847896	about 10	-0.024598
-2.995152	<s> norway	-0.024598
-1.910253	thursday morning	-0.024598
-1.262753	spokesman joe	-0.024598
-1.262753	too late	-0.024598
-2.964647	the indonesian	-0.024598
-2.628280	of colombo	-0.024598
-1.420547	local government	-0.024598
-2.289824	and one	-0.024598
-2.217505	and two	-0.024598
-2.931027	, hours	-0.024598
-1.657827	balachandran couldn	-0.024598
-2.732061	a share	-0.024598
-0.957432	58,000 people	-0.024598
-0.963163	test hooker	-0.024598
-2.771237	the dead	-0.024598
-0.950372	citizens have	-0.024598
-1.869647	also used	-0.024598
-0.431540	second half	-0.024598
-0.961723	600 kids	-0.024598
-1.366204	opposition that	-0.024598
-1.906017	also facing	-0.024598
-0.963163	free-market economy	-0.024598
-0.963163	majority sinhalese	-0.024598
-1.702526	out two	-0.024598
-2.194131	<s> styrofoam	-0.325628
-0.946191	framed with	-0.024598
-1.254212	vote later	-0.024598
-0.963163	hat ran	-0.024598
-1.635558	home but	-0.024598
-1.562348	political reform	-0.024598
-0.947580	sunday at	-0.024598
-2.297507	the two	-0.024598
-2.775976	<s> thursday	-0.024598
-2.042466	kong autonomy	-0.024598
-2.026761	is popular	-0.024598
-0.961723	communist system	-0.024598
-2.964647	the internet	-0.024598
-2.692087	and elementary	-0.024598
-2.732061	a two-day	-0.024598
-2.964647	the corner	-0.024598
-0.937947	january that	-0.024598
-1.274456	once a	-0.024598
-1.262753	new look	-0.024598
-1.857684	about 5,000	-0.024598
-2.581089	to take	-0.024598
-1.028487	spoke ,	-0.024598
-0.961723	tumbled down	-0.024598
-0.944806	saw two	-0.024598
-2.605616	in women	-0.024598
-2.581089	to make	-0.024598
-1.257041	our guards	-0.024598
-0.958857	around hu	-0.024598
-2.964647	the constitution	-0.024598
-2.605616	in japan	-0.024598
-2.312748	were crushed	-0.024598
-2.771237	the british	-0.024598
-3.127434	<s> although	-0.024598
-0.892747	prosperous and	-0.024598
-0.883044	towing the	-0.024598
-1.262753	sri lanka	-0.024598
-0.961723	shipping containers	-0.024598
-1.656402	tamil tigers	-0.024598
-1.245836	long had	-0.024598
-2.013064	one kindergarten	-0.024598
-0.963163	should never	-0.024598
-0.951460	have been	-0.024598
-1.262753	northern malaysian	-0.024598
-0.960288	summer camp	-0.024598
-0.903928	stacked to	-0.024598
-1.649342	half goal	-0.024598
-1.951775	have targeted	-0.024598
-0.901418	befitting a	-0.024598
-1.428896	other united	-0.024598
-0.942049	stretch hong	-0.024598
-2.285072	's there	-0.024598
-1.216435	what 's	-0.024598
-1.927193	they get	-0.024598
-2.964647	the rest	-0.024598
-0.961723	tiny territory	-0.024598
-1.530891	<s> a	-0.121508
-0.958857	resources past	-0.024598
-0.953182	yards )	-0.024598
-1.915405	have died	-0.024598
-2.783613	, norway	-0.024598
-0.963163	public holiday	-0.024598
-1.642417	it with	-0.024598
-2.732061	a semifinal	-0.024598
-2.042466	kong parent	-0.024598
-1.560917	leader gerry	-0.024598
-2.605616	in each	-0.024598
-2.386943	" unification	-0.024598
-1.028487	long ,	-0.024598
-0.963163	tragedy should	-0.024598
-1.245836	flew into	-0.024598
-2.783613	, including	-0.024598
-1.257041	financial systems	-0.024598
-0.956010	confiscated their	-0.024598
-0.830043	carrier ,	-0.024598
-1.776292	out but	-0.024598
-1.932915	by beijing	-0.024598
-1.635558	president hu	-0.024598
-0.963163	short-circuit may	-0.024598
-0.763714	had to	-0.024598
-1.718420	, who	-0.024598
-2.445957	and their	-0.024598
-2.857263	the gunmen	-0.024598
-2.316447	's once	-0.024598
-1.437409	protesters chanting	-0.024598
-0.957432	checked we	-0.024598
-2.964647	the hazardous	-0.024598
-2.964647	the sealand	-0.024598
-0.895207	help in	-0.024598
-0.946191	scuffled with	-0.024598
-0.895207	breakup in	-0.024598
-0.933883	asking for	-0.024598
-0.963163	fluttered among	-0.024598
-2.692087	and split	-0.024598
-1.437409	communications industry	-0.024598
-0.937947	agree that	-0.024598
-1.802936	a major	-0.024598
-2.261897	said most	-0.024598
-1.657827	over sweden	-0.024598
-1.718652	into two	-0.024598
-1.262753	arrest warrants	-0.024598
-1.454989	there were	-0.024598
-2.732061	a general	-0.024598
-2.178276	" '	-0.024598
-0.248716	long-distance and	-0.325628
-1.834284	government building	-0.024598
-0.960288	mobile communications	-0.024598
-2.931027	, chants	-0.024598
-2.062917	an imposing	-0.024598
-1.549640	there will	-0.024598
-1.245836	worked into	-0.024598
-0.901418	avoided a	-0.024598
-0.954594	broke out	-0.024598
-0.963163	rapid gunfire	-0.024598
-0.961723	congress ruled	-0.024598
-1.975275	by several	-0.024598
-2.282332	said lawmaker	-0.024598
-0.825544	thursday ,	-0.024598
-1.213858	shot that	-0.024598
-1.254212	10 years	-0.024598
-2.657631	a blaze	-0.024598
-0.731300	are being	-0.024598
-2.628280	of new	-0.024598
-0.892747	hugged and	-0.024598
-2.581089	to fight	-0.024598
-2.135052	that beijing	-0.024598
-1.500146	china in	-0.024598
-0.832171	states .	-0.024598
-1.522664	clinton also	-0.024598
-1.560917	years ago	-0.024598
-1.555242	telephone companies	-0.024598
-2.092626	" said	-0.024598
-1.656402	tamil eelam	-0.024598
-0.832171	questioning .	-0.024598
-0.892747	australia and	-0.024598
-0.891522	host of	-0.024598
-1.974777	at its	-0.024598
-2.386943	's 18-year	-0.024598
-1.801108	had left	-0.024598
-1.734162	it stopped	-0.024598
-1.874847	mahathir because	-0.024598
-1.553835	last year	-0.024598
-2.657631	a vote	-0.024598
-0.832171	share .	-0.024598
-1.549666	anwar 's	-0.024598
-1.799692	which guarantees	-0.024598
-2.277656	for abuse	-0.024598
-1.125830	blaze .	-0.024598
-0.830043	nearby ,	-0.024598
-1.911674	children framed	-0.024598
-2.692087	and lofted	-0.024598
-1.176993	match ,	-0.024598
-0.961723	1.83 meters	-0.024598
-0.944806	only two	-0.024598
-1.906017	its return	-0.024598
-1.560917	used every	-0.024598
-0.514087	penang .	-0.325628
-0.933883	trial for	-0.024598
-2.316447	" once	-0.024598
-2.964647	the 73-year-old	-0.024598
-0.960288	earned norwegian	-0.024598
-1.433132	norwegian flags	-0.024598
-1.735583	would stretch	-0.024598
-1.121655	deputy ,	-0.024598
-2.176464	<s> south	-0.325628
-2.159488	<s> government	-0.325628
-0.832171	harbor .	-0.024598
-0.957432	gutted dormitory	-0.024598
-1.656402	former fireman	-0.024598
-2.092319	with state-level	-0.024598
-1.384890	chinese and	-0.024598
-0.939310	update on	-0.024598
-2.964647	the cruel	-0.024598
-3.127434	<s> investors	-0.024598
-0.957432	victory over	-0.024598
-1.656402	than 400	-0.024598
-1.176993	center ,	-0.024598
-0.241401	autonomy .	-0.325628
-0.891522	length of	-0.024598
-1.377290	aarones was	-0.024598
-2.657631	a holding	-0.024598
-1.147296	played a	-0.024598
-2.194131	<s> fearing	-0.325628
-1.031854	fighting .	-0.024598
-1.725731	company executive	-0.024598
-2.851095	, nishizawa	-0.024598
-0.891522	formation of	-0.024598
-1.906017	( gp-dj	-0.024598
-0.901418	conduct a	-0.024598
-1.923228	his deputy	-0.024598
-1.262753	such structures	-0.024598
-2.285072	" hu	-0.024598
-0.957432	sweden wednesday	-0.024598
-1.384890	corp. and	-0.024598
-0.960288	wanted australian	-0.024598
-0.963163	very rapidly	-0.024598
-0.963163	formula dubbed	-0.024598
-1.031854	defenders .	-0.024598
-2.851095	, played	-0.024598
-0.960288	unification monument	-0.024598
-0.957432	present government	-0.024598
-0.552259	up at	-0.024598
-1.121655	norway ,	-0.024598
-2.637892	the president	-0.024598
-1.923228	his guards	-0.024598
-0.953182	centimeters )	-0.024598
-1.437409	world cups	-0.024598
-0.958857	skipping past	-0.024598
-1.206218	talks were	-0.024598
-2.505068	of her	-0.024598
-0.953182	tjh )	-0.024598
-0.960288	semifinal match	-0.024598
-0.963163	six-year prison	-0.024598
-0.830043	explanations ,	-0.024598
-0.948974	force one	-0.024598
-1.652152	this facility	-0.024598
-0.960288	kristin aarones	-0.024598
-2.931027	, handover	-0.024598
-0.830043	capital ,	-0.024598
-2.062917	an on-going	-0.024598
-0.947580	time at	-0.024598
-2.783613	, aarones	-0.024598
-1.031854	them .	-0.024598
-0.417082	state of	-0.024598
-1.906017	its way	-0.024598
-2.964647	the next	-0.024598
-1.997723	two children	-0.024598
-0.963163	highly regulated	-0.024598
-1.240340	challenge from	-0.024598
-1.428896	phone service	-0.024598
-1.927193	they face	-0.024598
-0.832171	rooms .	-0.024598
-2.082019	the talks	-0.024598
-0.963163	investors appeared	-0.024598
-0.431258	minutes later	-0.325628
-1.628920	that of	-0.024598
-1.801108	china defeated	-0.024598
-1.701379	camp dormitory	-0.024598
-2.528478	and center	-0.024598
-0.832171	tuesday .	-0.024598
-1.998480	as norwegian	-0.024598
-1.176993	years ,	-0.024598
-1.028487	down ,	-0.024598
-2.964647	the 55th	-0.024598
-0.939310	judgment on	-0.024598
-1.480333	seoul for	-0.024598
-1.420547	groups which	-0.024598
-1.130012	construction of	-0.024598
-0.830043	docomo ,	-0.024598
-1.717461	not been	-0.024598
-1.437409	building codes	-0.024598
-0.614976	he was	-0.024598
-1.474374	children .	-0.024598
-0.961723	criminal charges	-0.024598
-0.830043	pledge ,	-0.024598
-2.528478	and died	-0.024598
-2.033242	has been	-0.024598
-1.642395	her national	-0.024598
-1.593850	to china	-0.024598
-0.895207	overhaul in	-0.024598
-1.259887	walters played	-0.024598
-1.656402	anwar ibrahim	-0.024598
-0.963163	between familiar	-0.024598
-0.903928	point to	-0.024598
-2.135207	<s> about	-0.325628
-0.832171	rule .	-0.024598
-1.565539	systems that	-0.024598
-1.642395	fire safety	-0.024598
-0.963163	chanting nearby	-0.024598
-0.960288	reunification monument	-0.024598
-1.609257	it 's	-0.024598
-2.386943	's soccer	-0.024598
-0.950372	controlled by	-0.024598
-1.274456	get a	-0.024598
-1.251446	each of	-0.024598
-2.519721	in their	-0.024598
-1.735399	which also	-0.024598
-0.963163	dinner here	-0.024598
-1.147296	runs a	-0.024598
-0.832171	inc .	-0.024598
-1.262753	parent gained	-0.024598
-0.963163	wood blocks	-0.024598
-1.725044	and teachers	-0.024598
-0.957432	formed her	-0.024598
-2.009093	, making	-0.024598
-1.392575	corp. in	-0.024598
-0.958857	survivors before	-0.024598
-0.430975	australian police	-0.024598
-1.856272	government license	-0.024598
-0.954594	staff had	-0.024598
-0.958857	showed up	-0.024598
-1.748713	and in	-0.024598
-1.355394	all were	-0.024598
-0.947580	dae-jung said	-0.024598
-0.883044	contain the	-0.024598
-1.944597	as ntt	-0.024598
-2.964647	the free-market	-0.024598
-0.903928	intended to	-0.024598
-2.964647	the market	-0.024598
-0.942049	manage hong	-0.024598
-0.830043	place ,	-0.024598
-1.254257	phone and	-0.024598
-2.732061	a golf	-0.024598
-2.371480	, two	-0.024598
-0.883044	build the	-0.024598
-2.240299	and an	-0.024598
-2.262648	to "	-0.024598
-0.951775	audible from	-0.024598
-0.961723	measures must	-0.024598
-0.832171	massachusetts .	-0.024598
-1.893552	also spoke	-0.024598
-2.350266	's ruling	-0.024598
-0.950372	black "	-0.024598
-2.771237	the protesters	-0.024598
-2.637892	the company	-0.024598
-2.576476	and nippon	-0.024598
-1.031854	protege .	-0.024598
-0.960288	third year	-0.024598
-0.584918	thursday .	-0.501719
-1.221634	guard was	-0.024598
-0.832171	causes .	-0.024598
-1.555242	before parents	-0.024598
-1.240427	dormitory ,	-0.024598
-1.734162	their highest	-0.024598
-1.939310	they need	-0.024598
-0.963163	ordinary citizens	-0.024598
-1.437409	national scientific	-0.024598
-2.104614	two defenders	-0.024598
-1.377290	say hong	-0.024598
-2.964647	the wake	-0.024598
-0.883044	outshooting the	-0.024598
-2.732061	a similar	-0.024598
-0.937947	saturday that	-0.024598
-0.832171	card .	-0.024598
-0.963163	turn back	-0.024598
-1.558070	political system	-0.024598
-0.963163	stretching 50	-0.024598
-0.963163	successive elections	-0.024598
-1.619574	systems '	-0.024598
-1.748907	<s> all	-0.325628
-1.737845	china from	-0.024598
-2.159488	<s> prime	-0.325628
-2.932915	. we	-0.024598
-1.896755	kong has	-0.024598
-0.961723	fallen protege	-0.024598
-1.232267	kept the	-0.024598
-1.438844	business operations	-0.024598
-0.895207	stands in	-0.024598
-0.960288	struggle against	-0.024598
-2.964647	the skies	-0.024598
-0.950372	challenged by	-0.024598
-0.963163	relevant issues	-0.024598
-1.151726	need to	-0.024598
-0.960288	marks part	-0.024598
-0.960288	three minutes	-0.024598
-1.262753	i anticipated	-0.024598
-1.906017	also included	-0.024598
-1.262753	knights player	-0.024598
-1.136413	demonstrations in	-0.024598
-2.673755	, company	-0.024598
-1.121655	penalty ,	-0.024598
-2.381428	of its	-0.024598
-1.428896	international phone	-0.024598
-1.392526	earlier said	-0.024598
-1.259887	any mainland	-0.024598
-1.656402	president demanded	-0.024598
-0.832171	notified .	-0.024598
-0.960288	while she	-0.024598
-2.051213	the camp	-0.024598
-1.560917	being blurred	-0.024598
-0.892747	sacking and	-0.024598
-2.732061	a host	-0.024598
-1.850696	they have	-0.024598
-1.299234	said thursday	-0.024598
-0.883044	stay the	-0.024598
-0.963163	hands-off pledge	-0.024598
-3.127434	<s> japanese	-0.024598
-1.656402	chinese lawmakers	-0.024598
-0.830043	1 ,	-0.024598
-1.121655	guards ,	-0.024598
-1.555242	past swedish	-0.024598
-2.036592	the tamil	-0.024598
-0.830043	punishment ,	-0.024598
-1.799692	which collapsed	-0.024598
-0.948974	climbing as	-0.024598
-0.953182	feet (	-0.024598
-0.830043	soccer ,	-0.024598
-1.262753	major corporate	-0.024598
-2.426556	in his	-0.024598
-1.424701	both before	-0.024598
-1.716311	china at	-0.024598
-2.732061	a chance	-0.024598
-0.963163	officially launched	-0.024598
-0.785332	china 's	-0.024598
-1.906017	( centimeters	-0.024598
-0.961723	cup quarterfinal	-0.024598
-1.801959	the swedish	-0.024598
-0.153075	south korea	-0.200689
-1.624837	officials had	-0.024598
-1.064562	an end	-0.325628
-0.963163	quickly got	-0.024598
-1.243079	standards thursday	-0.024598
-2.678572	of demonstrators	-0.024598
-0.961723	15 tests	-0.024598
-1.609236	adults also	-0.024598
-0.891522	province of	-0.024598
-1.420547	communications corp.	-0.024598
-0.961723	60 miles	-0.024598
-0.939310	insisted on	-0.024598
-0.892747	authority and	-0.024598
-1.028487	prisoners ,	-0.024598
-2.062917	an electrical	-0.024598
-0.514087	dead .	-0.024598
-1.262753	financial prowess	-0.024598
-2.964647	the russians	-0.024598
-1.877722	, in	-0.024598
-2.199851	for karlsson	-0.024598
-2.316447	's second	-0.024598
-1.206218	fighting for	-0.024598
-0.951775	some children	-0.024598
-1.656402	president bill	-0.024598
-1.251446	groups of	-0.024598
-1.907425	from air	-0.024598
-0.255590	holding company	-0.024598
-1.412354	get out	-0.024598
-1.657827	we checked	-0.024598
-0.963163	two-day recreational	-0.024598
-0.963163	militia members	-0.024598
-0.830043	foxboro ,	-0.024598
-2.851095	, huge	-0.024598
-0.647492	officials said	-0.024598
-0.961723	off guard	-0.024598
-2.303777	said m.	-0.024598
-0.830043	him ,	-0.024598
-0.957432	vice president	-0.024598
-0.963163	paul harragon	-0.024598
-0.832171	1996 .	-0.024598
-0.946191	day with	-0.024598
-1.219101	half .	-0.024598
-1.628826	minister anwar	-0.024598
-1.213931	half ,	-0.024598
-0.958857	asked chinese	-0.024598
-2.594110	a national	-0.024598
-2.194131	<s> some	-0.325628
-1.392575	home in	-0.024598
-0.432106	east timor	-0.024598
-2.042466	kong residency	-0.024598
-1.262753	floors scrambled	-0.024598
-0.960288	western half	-0.024598
-1.257041	charges against	-0.024598
-1.428896	few minutes	-0.024598
-1.115434	outside the	-0.024598
-1.437409	world cup	-0.024598
-0.830043	mini-constitution ,	-0.024598
-1.245836	announced ntt	-0.024598
-2.605616	in most	-0.024598
-1.793663	the fire	-0.149537
-1.219101	fire .	-0.024598
-3.127434	<s> ann	-0.024598
-1.132136	tripped and	-0.024598
-2.167893	<s> there	-0.325628
-0.791950	out by	-0.024598
-0.963163	david trimble	-0.024598
-1.437409	other top	-0.024598
-0.963163	keep arms	-0.024598
-0.891522	rest of	-0.024598
-0.963163	administrative region	-0.024598
-0.963163	death toll	-0.024598
-1.428107	teachers and	-0.024598
-1.188546	of a	-0.024598
-0.830043	rapidly ,	-0.024598
-2.026761	is expected	-0.024598
-1.232267	against the	-0.024598
-1.262753	wife azizah	-0.024598
-2.931027	, massachusetts	-0.024598
-3.127434	<s> three	-0.024598
-2.732061	a concrete	-0.024598
-1.240427	camp ,	-0.024598
-1.128201	was a	-0.024598
-1.657827	since 1983	-0.024598
-0.950372	example by	-0.024598
-2.122282	two small	-0.024598
-1.130012	made of	-0.024598
-1.734162	who lost	-0.024598
-0.895207	involved in	-0.024598
-1.735583	are convinced	-0.024598
-2.893894	<s> anwar	-0.024598
-0.961723	different third-floor	-0.024598
-1.206218	need for	-0.024598
-0.933883	personnel were	-0.024598
-2.857263	the country	-0.024598
-0.960288	scoreless first	-0.024598
-1.734162	who built	-0.024598
-0.895207	elections in	-0.024598
-2.857263	the holding	-0.024598
-2.576476	and telecommunications	-0.024598
-2.692087	and irish	-0.024598
-2.995152	<s> early	-0.024598
-1.132136	lawmaker and	-0.024598
-0.961723	demanded stricter	-0.024598
-0.963163	celebrating amid	-0.024598
-0.939310	stair-cases on	-0.024598
-1.538648	later this	-0.024598
-1.730548	police said	-0.024598
-1.698797	also were	-0.024598
-1.549640	telephone east	-0.024598
-0.901418	serving a	-0.024598
-1.262753	pettersen near	-0.024598
-2.732061	a scoreless	-0.024598
-1.435529	to ,	-0.024598
-1.801108	had erred	-0.024598
-0.534968	karlsson and	-0.024598
-0.944806	make two	-0.024598
-1.813357	government officials	-0.024598
-2.964647	the number	-0.024598
-0.948974	washington as	-0.024598
-2.771237	the penalty	-0.024598
-0.957432	resolve this	-0.024598
-0.901418	fearing a	-0.024598
-1.922246	kong is	-0.024598
-2.386943	's july	-0.024598
-2.594110	a penalty	-0.024598
-2.931027	, or	-0.024598
-2.057673	with protesters	-0.024598
-1.206218	containers were	-0.024598
-1.656402	minister john	-0.024598
-2.732061	a crime	-0.024598
-1.910267	his home	-0.024598
-0.830043	rebels ,	-0.024598
-0.942049	proclaimed hong	-0.024598
-0.957432	pharmaceutical company	-0.024598
-1.437409	blaze broke	-0.024598
-1.856272	be notified	-0.024598
-2.092319	with ulster	-0.024598
-1.031854	talks .	-0.024598
-0.963163	june 2000	-0.024598
-1.362600	there to	-0.024598
-0.830043	plote ,	-0.024598
-0.963163	horrible tragedy	-0.024598
-0.961723	wasting our	-0.024598
-2.964647	the stands	-0.024598
-1.560917	match between	-0.024598
-1.151726	million to	-0.024598
-2.255812	" we	-0.024598
-2.964647	the death	-0.024598
-2.678572	of noise	-0.024598
-1.635558	when karlsson	-0.024598
-1.245836	high into	-0.024598
-1.437409	get heated	-0.024598
-0.961723	appeal ruled	-0.024598
-1.028487	heard ,	-0.024598
-0.903928	arms to	-0.024598
-1.560917	she jumped	-0.024598
-2.116292	that would	-0.024598
-1.400349	against his	-0.024598
-0.963163	bare-chested male	-0.024598
-1.438844	lockhart declined	-0.024598
-2.964647	the day	-0.024598
-2.771237	the end	-0.024598
-0.830043	issues ,	-0.024598
-2.062917	has allowed	-0.024598
-0.963163	loudly demanding	-0.024598
-2.583212	of british	-0.024598
-0.903928	revised to	-0.024598
-2.964647	the tiananmen	-0.024598
-1.998480	as part	-0.024598
-0.939310	irish on	-0.024598
-1.257041	well things	-0.024598
-0.954594	justices had	-0.024598
-1.784408	had earlier	-0.024598
-2.628280	of seoul	-0.024598
-1.958011	he has	-0.024598
-1.388667	call an	-0.024598
-0.963163	observers predict	-0.024598
-1.251402	making it	-0.024598
-1.428896	_ both	-0.024598
-0.954594	stopped after	-0.024598
-1.923249	is also	-0.024598
-2.410592	to beijing	-0.024598
-1.262753	gunmen raided	-0.024598
-2.630446	and financial	-0.024598
-1.420547	earlier this	-0.024598
-0.961723	once-fragmented opposition	-0.024598
-1.259887	flags through	-0.024598
-1.951775	have proper	-0.024598
-1.906017	ntt mobile	-0.024598
-2.087637	two adults	-0.024598
-0.832171	month .	-0.024598
-2.036592	the home	-0.024598
-0.903928	late to	-0.024598
-0.961723	issuing arrest	-0.024598
-0.901418	pass a	-0.024598
-2.673755	, police	-0.024598
-1.031854	colombo .	-0.024598
-1.031854	korea .	-0.024598
-0.895207	popular in	-0.024598
-1.151726	night to	-0.024598
-2.074651	with white	-0.024598
-0.830043	conversation ,	-0.024598
-2.931027	, except	-0.024598
-1.251402	forensic officials	-0.024598
-2.583212	of political	-0.024598
-1.262753	yellow card	-0.024598
-2.594110	a state	-0.024598
-1.428896	local phone	-0.024598
-1.437409	can absolutely	-0.024598
-0.832171	noise .	-0.024598
-1.527952	adults were	-0.024598
-0.883044	swept the	-0.024598
-0.963163	viking hat	-0.024598
-1.881435	its business	-0.024598
-2.062917	an accountant	-0.024598
-0.891522	court of	-0.024598
-0.960288	strengthen safety	-0.024598
-2.176464	<s> most	-0.325628
-1.437409	deputy abdullah	-0.024598
-1.031854	injury .	-0.024598
-2.732061	a teacher	-0.024598
-2.673755	, could	-0.024598
-0.961723	tony blair	-0.024598
-0.933883	custody for	-0.024598
-1.560917	face discrimination	-0.024598
-0.963163	british-style judiciary	-0.024598
-1.538648	telephone corp.	-0.024598
-2.893894	<s> since	-0.024598
-0.946191	meetings with	-0.024598
-2.931027	, 37	-0.024598
-0.963163	structural engineers	-0.024598
-0.963163	ulster unionist	-0.024598
-0.644158	beijing 's	-0.024598
-0.963163	even if	-0.024598
-2.285072	's tamil	-0.024598
-0.892747	neighbors and	-0.024598
-0.958857	league because	-0.024598
-2.732061	a summer	-0.024598
-2.964647	the term	-0.024598
-2.026761	is chipping	-0.024598
-0.937947	helicopters that	-0.024598
-1.701379	company officials	-0.024598
-2.594110	a camp	-0.024598
-0.892747	social and	-0.024598
-0.963163	sealand youth	-0.024598
-0.901418	lofted a	-0.024598
-2.219431	that floated	-0.024598
-1.614375	since its	-0.024598
-2.581089	to head	-0.024598
-1.355422	been a	-0.024598
-2.692087	and queensland	-0.024598
-0.963163	block structure	-0.024598
-0.883044	near the	-0.024598
-1.642395	when she	-0.024598
-0.933883	amnesty for	-0.024598
-0.963163	hooker steve	-0.024598
-1.628826	when we	-0.024598
-0.891522	wake of	-0.024598
-2.386943	" give	-0.024598
-2.255812	" it	-0.024598
-1.437409	national justice	-0.024598
-2.732061	a bare-chested	-0.024598
-1.788523	police began	-0.024598
-1.760578	on a	-0.024598
-1.525350	government to	-0.024598
-0.891522	number of	-0.024598
-2.678572	of dissent	-0.024598
-1.362600	used to	-0.024598
-1.259887	kick high	-0.024598
-0.330363	children and	-0.024598
-1.611442	<s> in	-0.149537
-0.961723	liberation organization	-0.024598
-1.555242	early election	-0.024598
-0.892747	judiciary and	-0.024598
-0.937947	accusations that	-0.024598
-2.277656	for australia	-0.024598
-0.963163	mostrom scored	-0.024598
-0.947580	occurred at	-0.024598
-2.548194	, about	-0.024598
-1.906017	its third	-0.024598
-1.745267	after at	-0.024598
-0.903928	days to	-0.024598
-1.910267	his armed	-0.024598
-2.021118	" hong	-0.024598
-1.609236	than '	-0.024598
-1.549640	armed guards	-0.024598
-1.130012	height of	-0.024598
-1.734162	company oversees	-0.024598
-0.960288	walking early	-0.024598
-0.891522	abuse of	-0.024598
-2.277656	for identification	-0.024598
-2.692087	and t	-0.024598
-2.581089	to celebrate	-0.024598
-0.933883	star for	-0.024598
-0.255166	kilometers (	-0.024598
-2.312748	were hampered	-0.024598
-0.963163	defeated russia	-0.024598
-1.262753	major overhaul	-0.024598
-2.692087	and resolve	-0.024598
-2.931027	, wood	-0.024598
-1.906017	( tjh	-0.024598
-1.327844	years of	-0.024598
-1.115434	under the	-0.024598
-1.657827	this horrible	-0.024598
-2.581089	to propel	-0.024598
-0.891522	lives of	-0.024598
-2.350266	's wife	-0.024598
-0.556903	swedish goalie	-0.024598
-1.392575	adults in	-0.024598
-0.961723	room where	-0.024598
-1.649342	than i	-0.024598
-1.437409	telecommunications giant	-0.024598
-0.247604	through the	-0.024598
-0.961723	these kids	-0.024598
-1.176993	now ,	-0.024598
-0.963163	54 freight	-0.024598
-0.963163	absolutely manage	-0.024598
-1.136413	kindergarten in	-0.024598
-1.040330	two of	-0.024598
-0.957432	73-year-old prime	-0.024598
-0.901418	sent a	-0.024598
-1.551899	beijing were	-0.024598
-0.958857	top party	-0.024598
-0.963163	macon wong	-0.024598
-0.883044	cut the	-0.024598
-0.883044	if the	-0.024598
-0.960288	spread fire	-0.024598
-1.254212	kick when	-0.024598
-1.656402	fire very	-0.024598
-2.657631	a quarterfinal	-0.024598
-0.963163	ahmad badawi	-0.024598
-2.732061	a soft	-0.024598
-2.964647	the basic	-0.024598
-0.961723	marianne pettersen	-0.024598
-1.734162	who licensed	-0.024598
-0.963163	fan wearing	-0.024598
-1.678320	wednesday they	-0.024598
-2.122282	two different	-0.024598
-0.950372	hampered by	-0.024598
-0.947580	program at	-0.024598
-2.018108	that has	-0.024598
-0.832171	200,000 .	-0.024598
-2.081039	that they	-0.024598
-1.549640	leader will	-0.024598
-1.130012	leaders of	-0.024598
-2.964647	the field	-0.024598
-1.125870	two systems	-0.024598
-0.903928	scrambled to	-0.024598
-1.857684	about 200,000	-0.024598
-1.424767	company and	-0.024598
-1.132136	construction and	-0.024598
-0.963163	stock exchange	-0.024598
-2.312748	were awarded	-0.024598
-1.910267	his party	-0.024598
-1.132136	mothers and	-0.024598
-1.132136	parents and	-0.024598
-1.132136	kindergarten and	-0.024598
-1.251446	call of	-0.024598
-2.678572	of survivors	-0.024598
-1.245924	camp .	-0.024598
-0.960288	japanese telecommunications	-0.024598
-0.933883	materials were	-0.024598
-2.857263	the facility	-0.024598
-0.903928	deferred to	-0.024598
-1.251402	facility could	-0.024598
-2.143151	<s> ntt	-0.024598
-0.963163	meet-the-people tour	-0.024598
-1.735583	are wasting	-0.024598
-0.950372	although he	-0.024598
-2.851095	, 100	-0.024598
-1.600859	thursday and	-0.024598
-1.262753	third-floor rooms	-0.024598
-1.656402	corp. covering	-0.024598
-2.284104	, on	-0.024598
-0.961723	regional telephone	-0.024598
-1.333116	mahathir .	-0.024598
-1.433132	service under	-0.024598
-0.963163	silje jorgensen	-0.024598
-0.901418	sending a	-0.024598
-1.544109	party last	-0.024598
-1.181739	past .	-0.024598
-1.725731	wednesday night	-0.024598
-1.262753	executive tung	-0.024598
-0.957432	level since	-0.024598
-1.663601	who have	-0.024598
-2.254940	were local	-0.024598
-0.960288	largest telecommunications	-0.024598
-0.933883	dissent were	-0.024598
-2.995152	<s> japan	-0.024598
-0.024889	hong kong	-0.189408
-0.963163	changing faster	-0.024598
-1.979852	. one	-0.024598
-1.420547	how this	-0.024598
-0.933883	worse for	-0.024598
-1.250769	died .	-0.024598
-0.555914	because it	-0.024598
-1.262753	played 15	-0.024598
-2.964647	the butchers	-0.024598
-2.199851	for later	-0.024598
-1.435979	state where	-0.024598
-0.903928	brought to	-0.024598
-1.562348	last september	-0.024598
-2.026761	is serving	-0.024598
-1.259887	i heard	-0.024598
-2.312748	were issuing	-0.024598
-1.337982	early in	-0.024598
-2.692087	and tumbled	-0.024598
-0.891522	show of	-0.024598
-0.960288	champion norway	-0.024598
-1.735583	are changing	-0.024598
-2.350266	's too	-0.024598
-0.961723	ensure huge	-0.024598
-2.082019	the net	-0.325628
-1.910253	) north	-0.024598
-2.159488	<s> this	-0.325628
-1.563783	more important	-0.024598
-0.895207	stunned in	-0.024598
-1.151726	want to	-0.024598
-0.832171	anticipated .	-0.024598
-0.963163	russians 24-2	-0.024598
-1.331197	investigation and	-0.024598
-0.961723	knee injury	-0.024598
-1.064562	an early	-0.024598
-0.254602	nishizawa said	-0.325628
-0.830043	separately ,	-0.024598
-0.883044	know the	-0.024598
-2.576476	and fire	-0.024598
-1.747027	and four	-0.325628
-1.555242	been fighting	-0.024598
-2.783613	, how	-0.024598
-0.832171	born .	-0.024598
-0.963163	malin mostrom	-0.024598
-0.895207	erred in	-0.024598
-1.273903	beijing ,	-0.024598
-2.250143	for colombo	-0.024598
-0.951775	blocked from	-0.024598
-2.732061	a tamil-majority	-0.024598
-2.699467	the armed	-0.024598
-1.229553	called an	-0.024598
-0.903928	speaking to	-0.024598
-0.830043	26 ,	-0.024598
-2.732061	a 3-1	-0.024598
-1.115434	made the	-0.024598
-0.953182	inches (	-0.024598
-2.010394	with china	-0.024598
-2.995152	<s> australian	-0.024598
-1.105703	that the	-0.024598
-0.958857	thorough investigation	-0.024598
-1.725731	company long	-0.024598
-1.529253	dead children	-0.024598
-0.892747	husband and	-0.024598
-1.656402	could contain	-0.024598
-2.013064	one long-distance	-0.024598
-1.251402	together since	-0.024598
-1.257041	stricter safety	-0.024598
-1.979350	is now	-0.024598
-1.492361	first two	-0.024598
-0.950372	rallying his	-0.024598
-1.405343	up to	-0.024598
-2.386943	" substantive	-0.024598
-1.437409	began meetings	-0.024598
-0.947580	howard said	-0.024598
-0.830043	wong ,	-0.024598
-0.963163	those jailed	-0.024598
-0.963163	network inc	-0.024598
-0.963163	already squarely	-0.024598
-0.891522	t of	-0.024598
-2.605616	in south	-0.024598
-0.892747	reform and	-0.024598
-0.903928	returning to	-0.024598
-1.803956	after 156	-0.024598
-1.747027	and international	-0.024598
-2.931027	, neighbors	-0.024598
-2.312748	were audible	-0.024598
-2.964647	the right	-0.024598
-0.963163	twin daughters	-0.024598
-2.725220	, now	-0.024598
-2.386943	's marianne	-0.024598
-1.355422	face a	-0.024598
-1.801959	the attack	-0.024598
-0.903928	belongs to	-0.024598
-0.963163	independent homeland	-0.024598
-2.194131	<s> security	-0.325628
-2.964647	the victims	-0.024598
-1.125830	swedes .	-0.024598
-0.891522	side of	-0.024598
-2.699467	the past	-0.024598
-0.963163	stayed prosperous	-0.024598
-0.431540	will face	-0.024598
-2.692087	and civil	-0.024598
-2.576476	and communications	-0.024598
-0.950372	crushed by	-0.024598
-1.596651	anwar is	-0.024598
-2.581089	to ensure	-0.024598
-0.961723	house spokesman	-0.024598
-0.883044	allowed the	-0.024598
-0.963163	azizah ismail	-0.024598
-0.963163	indonesian province	-0.024598
-1.734162	not behind	-0.024598
-1.748634	but was	-0.024598
-0.832171	queensland .	-0.024598
-0.958857	m. balachandran	-0.024598
-1.678320	it also	-0.024598
-1.583229	to mahathir	-0.024598
-1.437409	swedes avoided	-0.024598
-2.218064	was stunned	-0.024598
-1.649364	dormitory at	-0.024598
-1.259887	new companies	-0.024598
-1.254212	gave up	-0.024598
-0.963163	gerry adams	-0.024598
-0.961723	steve walters	-0.024598
-2.178276	" thursday	-0.024598
-0.948974	stairs as	-0.024598
-1.622219	who was	-0.024598
-1.280404	groups to	-0.024598
-0.953182	? they	-0.024598
-0.960288	waterfront monument	-0.024598
-2.312748	were responding	-0.024598
-1.151726	residency to	-0.024598
-1.136413	charges in	-0.024598
-0.960288	flag-raising ceremony	-0.024598
-2.964647	the three-story	-0.024598
-2.964647	the ball	-0.024598
-1.433199	camp in	-0.024598
-0.891522	corner of	-0.024598
-1.816217	' is	-0.024598
-1.845139	be taken	-0.024598
-0.960288	malaysian state	-0.024598
-2.409197	of mahathir	-0.024598
-2.857263	the construction	-0.024598
-1.125830	minute .	-0.024598
-2.312748	were brought	-0.024598
-2.060134	kong deferred	-0.024598
-2.771237	the united	-0.024598
-0.963163	golf club	-0.024598
-0.963163	elementary school	-0.024598
-1.823694	be armed	-0.024598
-0.933883	chanted for	-0.024598
-2.386943	's sacking	-0.024598
-2.409917	and ntt	-0.024598
-0.514087	year .	-0.024598
-0.961723	just outside	-0.024598
-0.963163	6-year-old twin	-0.024598
-1.438844	safety consulting	-0.024598
-2.285072	" there	-0.024598
-0.957432	skies over	-0.024598
-2.112508	" one	-0.024598
-0.830043	jumped ,	-0.024598
-0.892747	inside and	-0.024598
-0.958857	scientific investigation	-0.024598
-1.923228	his first	-0.024598
-2.732061	a flag-raising	-0.024598
-2.125901	said one	-0.024598
-2.029348	at home	-0.024598
-2.857263	the new	-0.024598
-1.251446	both of	-0.024598
-2.277656	for canberra	-0.024598
-2.674055	in mostly	-0.024598
-1.897681	his prime	-0.024598
-1.245924	dormitory .	-0.024598
-2.548194	, mahathir	-0.024598
-1.560917	face criminal	-0.024598
-1.307373	china ,	-0.024598
-2.581089	to residents	-0.024598
-2.325599	, hong	-0.024598
-0.942049	altar was	-0.024598
-0.832171	carelessness .	-0.024598
-2.312748	were attending	-0.024598
-1.711734	<s> two	-0.325628
-0.963163	nationwide meet-the-people	-0.024598
-1.437409	many observers	-0.024598
-0.249971	advantage to	-0.325628
-1.570987	by a	-0.024598
-0.961723	unidentified gunmen	-0.024598
-0.892747	blocks and	-0.024598
-2.066343	the opposition	-0.024598
-0.963163	highest level	-0.024598
-2.167893	<s> center	-0.325628
-0.958857	fled when	-0.024598
-1.213931	corp. ,	-0.024598
-0.958857	facing investigation	-0.024598
-2.386943	's one-party	-0.024598
-2.630446	and arrest	-0.024598
-0.832171	here .	-0.024598
-2.312748	were asleep	-0.024598
-2.783613	, lockhart	-0.024598
-0.963163	cruel manner	-0.024598
-0.963163	abdullah ahmad	-0.024598
-0.832171	holiday .	-0.024598
-1.388667	began an	-0.024598
-1.437409	communications network	-0.024598
-1.369868	world 's	-0.024598
-0.832171	pact .	-0.024598
-0.950372	may have	-0.024598
-1.906017	but anti-china	-0.024598
-0.883044	caused the	-0.024598
-1.946581	by armed	-0.024598
-2.546509	in beijing	-0.024598
-0.832171	24-2 .	-0.024598
-0.961723	newcastle knights	-0.024598
-1.031344	one country	-0.024598
-2.775976	<s> (	-0.024598
-0.951775	toll from	-0.024598
-0.960288	eastern japan	-0.024598
-0.961723	give peace	-0.024598
-0.960288	didn 't	-0.024598
-0.800865	about the	-0.024598
-1.656402	when challenged	-0.024598
-0.961723	tough challenge	-0.024598
-1.381097	half of	-0.024598
-2.931027	, sub-standard	-0.024598
-0.958857	justice party	-0.024598
-1.366204	blaze that	-0.024598
-1.622219	wednesday was	-0.024598
-1.259887	free kick	-0.024598
-1.582440	" the	-0.024598
-1.028487	mainland ,	-0.024598
-1.907425	from getting	-0.024598
-1.906017	its own	-0.024598
-0.933883	especially for	-0.024598
-0.957432	firefighters could	-0.024598
-0.939310	sea on	-0.024598
-0.832171	coast .	-0.024598
-0.892747	canberra and	-0.024598
-0.963163	boat parade	-0.024598
-2.303777	said repeatedly	-0.024598
-0.830043	suk ,	-0.024598
-0.961723	targeted moderate	-0.024598
-1.204579	japan ,	-0.024598
-2.255812	" which	-0.024598
-0.963163	flammable materials	-0.024598
-1.066106	has kept	-0.024598
-0.832171	look .	-0.024598
-1.389076	<s> police	-0.626658
-1.437409	opposition off	-0.024598
-1.437409	kim dae-jung	-0.024598
-0.950372	tigers have	-0.024598
-2.386943	's ministry	-0.024598
-0.892747	recession and	-0.024598
-1.641019	this because	-0.024598
-0.961723	lower floors	-0.024598
-2.386943	's help	-0.024598
-1.437409	many ordinary	-0.024598
-1.731378	also on	-0.024598
-2.487527	to both	-0.024598
-0.830043	exchange ,	-0.024598
-2.350266	" stricter	-0.024598
-2.542385	of tamil	-0.024598
-0.937947	follows that	-0.024598
-0.963163	concrete block	-0.024598
-1.130012	organization of	-0.024598
-1.533254	past their	-0.024598
-2.964647	the causes	-0.024598
-2.964647	the gutted	-0.024598
-0.830043	structure ,	-0.024598
-1.366204	say that	-0.024598
-2.964647	the lower	-0.024598
-0.883044	save the	-0.024598
-2.422788	, said	-0.024598
-0.883044	marked the	-0.024598
-2.218064	was arrested	-0.024598
-2.692087	and landed	-0.024598
-0.766588	after the	-0.024598
-1.725731	their ruling	-0.024598
-0.830043	again ,	-0.024598
-1.549640	early second	-0.024598
-2.312748	were only	-0.024598
-1.132136	defenders and	-0.024598
-0.832171	changed .	-0.024598
-1.396420	international one	-0.024598
-1.560917	hu told	-0.024598
-0.961723	chief executive	-0.024598
-2.386943	's mini-constitution	-0.024598
-0.832171	asleep .	-0.024598
-1.906017	( dlrs	-0.024598
-1.420547	deputy prime	-0.024598
-1.259887	crowds turned	-0.024598
-0.958857	unionist leader	-0.024598
-0.933883	conversations were	-0.024598
-2.022448	the government	-0.024598
-0.963163	safer without	-0.024598
-1.151726	goal to	-0.024598
-2.104614	two outside	-0.024598
-0.429003	lockhart said	-0.325628
-1.262753	gunmen fled	-0.024598
-2.312748	were attacked	-0.024598
-1.151726	election to	-0.024598
-1.031854	guard .	-0.024598
-0.891522	photos of	-0.024598
-0.963163	narrow corridor	-0.024598
-2.570987	. a	-0.024598
-2.218064	was set	-0.024598
-1.892747	they would	-0.024598
-1.802530	into charred	-0.024598
-0.963163	substitute solveig	-0.024598
-0.960288	consulting business	-0.024598
-2.170677	on local	-0.024598
-0.891522	southwest of	-0.024598
-1.553835	swedish penalty	-0.024598
-0.883044	built the	-0.024598
-2.964647	the celebrations	-0.024598
-0.933883	planned for	-0.024598
-1.807171	from one	-0.024598
-2.674055	in apparent	-0.024598
-1.584439	people were	-0.024598
-1.136413	together in	-0.024598
-0.832171	tour .	-0.024598
-0.961723	specify them	-0.024598
-2.277656	for facilities	-0.024598
-1.280404	norway to	-0.024598
-2.026761	is crucial	-0.024598
-1.262753	lawmaker martin	-0.024598
-1.028487	well ,	-0.024598
-1.427493	east corp.	-0.024598
-2.995152	<s> many	-0.024598
-1.262753	final judgment	-0.024598
-0.963163	graf pvs	-0.024598
-2.725220	, chinese	-0.024598
-0.903928	agreed to	-0.024598
-1.487559	out of	-0.024598
-1.579602	for the	-0.024598
-0.937947	collision that	-0.024598
-2.026063	for an	-0.024598
-2.409917	and after	-0.024598
-1.641019	officials who	-0.024598
-0.830043	appearances ,	-0.024598
-1.176993	later ,	-0.024598
-1.246594	year ,	-0.024598
